digraph Tree {
node [shape=box, style="filled, rounded", color="black", fontname=helvetica] ;
edge [fontname=helvetica] ;
0 [label="NAME_INCOME_TYPE_Working <= 0.5\ngini = 0.148\nsamples = 307511\nvalue = [282686, 24825]", fillcolor="#e58139e9"] ;
1 [label="CODE_GENDER_F <= 0.5\ngini = 0.121\nsamples = 148737\nvalue = [139136, 9601]", fillcolor="#e58139ed"] ;
0 -> 1 [labeldistance=2.5, labelangle=45, headlabel="True"] ;
2 [label="NAME_EDUCATION_TYPE_Higher education <= 0.5\ngini = 0.151\nsamples = 43069\nvalue = [39534, 3535]", fillcolor="#e58139e8"] ;
1 -> 2 ;
3 [label="NAME_FAMILY_STATUS_Married <= 0.5\ngini = 0.169\nsamples = 29960\nvalue = [27162, 2798]", fillcolor="#e58139e5"] ;
2 -> 3 ;
4 [label="FLAG_OWN_CAR_Y <= 0.5\ngini = 0.213\nsamples = 8448\nvalue = [7423, 1025]", fillcolor="#e58139dc"] ;
3 -> 4 ;
5 [label="OCCUPATION_TYPE_Low-skill Laborers <= 0.5\ngini = 0.24\nsamples = 4873\nvalue = [4195, 678]", fillcolor="#e58139d6"] ;
4 -> 5 ;
6 [label="REG_CITY_NOT_WORK_CITY_Y <= 0.5\ngini = 0.235\nsamples = 4774\nvalue = [4125, 649]", fillcolor="#e58139d7"] ;
5 -> 6 ;
7 [label="ORGANIZATION_TYPE_Trade: type 2 <= 0.5\ngini = 0.22\nsamples = 3549\nvalue = [3103, 446]", fillcolor="#e58139da"] ;
6 -> 7 ;
8 [label="FLAG_WORK_PHONE_Y <= 0.5\ngini = 0.223\nsamples = 3487\nvalue = [3042, 445]", fillcolor="#e58139da"] ;
7 -> 8 ;
9 [label="ORGANIZATION_TYPE_Government <= 0.5\ngini = 0.215\nsamples = 3115\nvalue = [2733, 382]", fillcolor="#e58139db"] ;
8 -> 9 ;
10 [label="gini = 0.211\nsamples = 3035\nvalue = [2671, 364]", fillcolor="#e58139dc"] ;
9 -> 10 ;
11 [label="gini = 0.349\nsamples = 80\nvalue = [62, 18]", fillcolor="#e58139b5"] ;
9 -> 11 ;
12 [label="LIVE_CITY_NOT_WORK_CITY_Y <= 0.5\ngini = 0.281\nsamples = 372\nvalue = [309, 63]", fillcolor="#e58139cb"] ;
8 -> 12 ;
13 [label="gini = 0.274\nsamples = 367\nvalue = [307, 60]", fillcolor="#e58139cd"] ;
12 -> 13 ;
14 [label="gini = 0.48\nsamples = 5\nvalue = [2, 3]", fillcolor="#399de555"] ;
12 -> 14 ;
15 [label="WEEKDAY_APPR_PROCESS_START_FRIDAY <= 0.5\ngini = 0.032\nsamples = 62\nvalue = [61, 1]", fillcolor="#e58139fb"] ;
7 -> 15 ;
16 [label="gini = 0.0\nsamples = 56\nvalue = [56, 0]", fillcolor="#e58139ff"] ;
15 -> 16 ;
17 [label="OCCUPATION_TYPE_Core staff <= 0.5\ngini = 0.278\nsamples = 6\nvalue = [5, 1]", fillcolor="#e58139cc"] ;
15 -> 17 ;
18 [label="gini = 0.0\nsamples = 4\nvalue = [4, 0]", fillcolor="#e58139ff"] ;
17 -> 18 ;
19 [label="gini = 0.5\nsamples = 2\nvalue = [1, 1]", fillcolor="#e5813900"] ;
17 -> 19 ;
20 [label="FLAG_CONT_MOBILE_N <= 0.5\ngini = 0.277\nsamples = 1225\nvalue = [1022, 203]", fillcolor="#e58139cc"] ;
6 -> 20 ;
21 [label="NAME_FAMILY_STATUS_Widow <= 0.5\ngini = 0.275\nsamples = 1223\nvalue = [1022, 201]", fillcolor="#e58139cd"] ;
20 -> 21 ;
22 [label="NAME_CONTRACT_TYPE_Revolving loans <= 0.5\ngini = 0.27\nsamples = 1211\nvalue = [1016, 195]", fillcolor="#e58139ce"] ;
21 -> 22 ;
23 [label="gini = 0.282\nsamples = 1123\nvalue = [932, 191]", fillcolor="#e58139cb"] ;
22 -> 23 ;
24 [label="gini = 0.087\nsamples = 88\nvalue = [84, 4]", fillcolor="#e58139f3"] ;
22 -> 24 ;
25 [label="WEEKDAY_APPR_PROCESS_START_TUESDAY <= 0.5\ngini = 0.5\nsamples = 12\nvalue = [6, 6]", fillcolor="#e5813900"] ;
21 -> 25 ;
26 [label="gini = 0.245\nsamples = 7\nvalue = [6, 1]", fillcolor="#e58139d4"] ;
25 -> 26 ;
27 [label="gini = 0.0\nsamples = 5\nvalue = [0, 5]", fillcolor="#399de5ff"] ;
25 -> 27 ;
28 [label="gini = 0.0\nsamples = 2\nvalue = [0, 2]", fillcolor="#399de5ff"] ;
20 -> 28 ;
29 [label="NAME_HOUSING_TYPE_Municipal apartment <= 0.5\ngini = 0.414\nsamples = 99\nvalue = [70, 29]", fillcolor="#e5813995"] ;
5 -> 29 ;
30 [label="ORGANIZATION_TYPE_Business Entity Type 3 <= 0.5\ngini = 0.372\nsamples = 89\nvalue = [67, 22]", fillcolor="#e58139ab"] ;
29 -> 30 ;
31 [label="WEEKDAY_APPR_PROCESS_START_SUNDAY <= 0.5\ngini = 0.236\nsamples = 44\nvalue = [38, 6]", fillcolor="#e58139d7"] ;
30 -> 31 ;
32 [label="REG_CITY_NOT_LIVE_CITY_N <= 0.5\ngini = 0.176\nsamples = 41\nvalue = [37, 4]", fillcolor="#e58139e3"] ;
31 -> 32 ;
33 [label="gini = 0.49\nsamples = 7\nvalue = [4, 3]", fillcolor="#e5813940"] ;
32 -> 33 ;
34 [label="gini = 0.057\nsamples = 34\nvalue = [33, 1]", fillcolor="#e58139f7"] ;
32 -> 34 ;
35 [label="FLAG_DOCUMENT_3_Y <= 0.5\ngini = 0.444\nsamples = 3\nvalue = [1, 2]", fillcolor="#399de57f"] ;
31 -> 35 ;
36 [label="gini = 0.0\nsamples = 1\nvalue = [1, 0]", fillcolor="#e58139ff"] ;
35 -> 36 ;
37 [label="gini = 0.0\nsamples = 2\nvalue = [0, 2]", fillcolor="#399de5ff"] ;
35 -> 37 ;
38 [label="WEEKDAY_APPR_PROCESS_START_FRIDAY <= 0.5\ngini = 0.458\nsamples = 45\nvalue = [29, 16]", fillcolor="#e5813972"] ;
30 -> 38 ;
39 [label="WEEKDAY_APPR_PROCESS_START_SATURDAY <= 0.5\ngini = 0.397\nsamples = 33\nvalue = [24, 9]", fillcolor="#e581399f"] ;
38 -> 39 ;
40 [label="gini = 0.337\nsamples = 28\nvalue = [22, 6]", fillcolor="#e58139b9"] ;
39 -> 40 ;
41 [label="gini = 0.48\nsamples = 5\nvalue = [2, 3]", fillcolor="#399de555"] ;
39 -> 41 ;
42 [label="REG_CITY_NOT_WORK_CITY_Y <= 0.5\ngini = 0.486\nsamples = 12\nvalue = [5, 7]", fillcolor="#399de549"] ;
38 -> 42 ;
43 [label="gini = 0.5\nsamples = 10\nvalue = [5, 5]", fillcolor="#e5813900"] ;
42 -> 43 ;
44 [label="gini = 0.0\nsamples = 2\nvalue = [0, 2]", fillcolor="#399de5ff"] ;
42 -> 44 ;
45 [label="ORGANIZATION_TYPE_Business Entity Type 3 <= 0.5\ngini = 0.42\nsamples = 10\nvalue = [3, 7]", fillcolor="#399de592"] ;
29 -> 45 ;
46 [label="REG_CITY_NOT_WORK_CITY_N <= 0.5\ngini = 0.219\nsamples = 8\nvalue = [1, 7]", fillcolor="#399de5db"] ;
45 -> 46 ;
47 [label="WEEKDAY_APPR_PROCESS_START_FRIDAY <= 0.5\ngini = 0.5\nsamples = 2\nvalue = [1, 1]", fillcolor="#e5813900"] ;
46 -> 47 ;
48 [label="gini = 0.0\nsamples = 1\nvalue = [1, 0]", fillcolor="#e58139ff"] ;
47 -> 48 ;
49 [label="gini = 0.0\nsamples = 1\nvalue = [0, 1]", fillcolor="#399de5ff"] ;
47 -> 49 ;
50 [label="gini = 0.0\nsamples = 6\nvalue = [0, 6]", fillcolor="#399de5ff"] ;
46 -> 50 ;
51 [label="gini = 0.0\nsamples = 2\nvalue = [2, 0]", fillcolor="#e58139ff"] ;
45 -> 51 ;
52 [label="ORGANIZATION_TYPE_Mobile <= 0.5\ngini = 0.175\nsamples = 3575\nvalue = [3228, 347]", fillcolor="#e58139e4"] ;
4 -> 52 ;
53 [label="NAME_INCOME_TYPE_Commercial associate <= 0.5\ngini = 0.174\nsamples = 3573\nvalue = [3228, 345]", fillcolor="#e58139e4"] ;
52 -> 53 ;
54 [label="ORGANIZATION_TYPE_Construction <= 0.5\ngini = 0.124\nsamples = 981\nvalue = [916, 65]", fillcolor="#e58139ed"] ;
53 -> 54 ;
55 [label="REG_CITY_NOT_LIVE_CITY_Y <= 0.5\ngini = 0.121\nsamples = 978\nvalue = [915, 63]", fillcolor="#e58139ed"] ;
54 -> 55 ;
56 [label="NAME_TYPE_SUITE_Children <= 0.5\ngini = 0.106\nsamples = 891\nvalue = [841, 50]", fillcolor="#e58139f0"] ;
55 -> 56 ;
57 [label="gini = 0.102\nsamples = 886\nvalue = [838, 48]", fillcolor="#e58139f0"] ;
56 -> 57 ;
58 [label="gini = 0.48\nsamples = 5\nvalue = [3, 2]", fillcolor="#e5813955"] ;
56 -> 58 ;
59 [label="NAME_TYPE_SUITE_Family <= 0.5\ngini = 0.254\nsamples = 87\nvalue = [74, 13]", fillcolor="#e58139d2"] ;
55 -> 59 ;
60 [label="gini = 0.204\nsamples = 78\nvalue = [69, 9]", fillcolor="#e58139de"] ;
59 -> 60 ;
61 [label="gini = 0.494\nsamples = 9\nvalue = [5, 4]", fillcolor="#e5813933"] ;
59 -> 61 ;
62 [label="FLAG_DOCUMENT_3_N <= 0.5\ngini = 0.444\nsamples = 3\nvalue = [1, 2]", fillcolor="#399de57f"] ;
54 -> 62 ;
63 [label="gini = 0.0\nsamples = 2\nvalue = [0, 2]", fillcolor="#399de5ff"] ;
62 -> 63 ;
64 [label="gini = 0.0\nsamples = 1\nvalue = [1, 0]", fillcolor="#e58139ff"] ;
62 -> 64 ;
65 [label="OCCUPATION_TYPE_Medicine staff <= 0.5\ngini = 0.193\nsamples = 2592\nvalue = [2312, 280]", fillcolor="#e58139e0"] ;
53 -> 65 ;
66 [label="OCCUPATION_TYPE_Cooking staff <= 0.5\ngini = 0.192\nsamples = 2589\nvalue = [2311, 278]", fillcolor="#e58139e0"] ;
65 -> 66 ;
67 [label="OCCUPATION_TYPE_HR staff <= 0.5\ngini = 0.19\nsamples = 2575\nvalue = [2302, 273]", fillcolor="#e58139e1"] ;
66 -> 67 ;
68 [label="gini = 0.189\nsamples = 2574\nvalue = [2302, 272]", fillcolor="#e58139e1"] ;
67 -> 68 ;
69 [label="gini = 0.0\nsamples = 1\nvalue = [0, 1]", fillcolor="#399de5ff"] ;
67 -> 69 ;
70 [label="NAME_FAMILY_STATUS_Civil marriage <= 0.5\ngini = 0.459\nsamples = 14\nvalue = [9, 5]", fillcolor="#e5813971"] ;
66 -> 70 ;
71 [label="gini = 0.375\nsamples = 12\nvalue = [9, 3]", fillcolor="#e58139aa"] ;
70 -> 71 ;
72 [label="gini = 0.0\nsamples = 2\nvalue = [0, 2]", fillcolor="#399de5ff"] ;
70 -> 72 ;
73 [label="NAME_HOUSING_TYPE_House / apartment <= 0.5\ngini = 0.444\nsamples = 3\nvalue = [1, 2]", fillcolor="#399de57f"] ;
65 -> 73 ;
74 [label="gini = 0.0\nsamples = 2\nvalue = [0, 2]", fillcolor="#399de5ff"] ;
73 -> 74 ;
75 [label="gini = 0.0\nsamples = 1\nvalue = [1, 0]", fillcolor="#e58139ff"] ;
73 -> 75 ;
76 [label="gini = 0.0\nsamples = 2\nvalue = [0, 2]", fillcolor="#399de5ff"] ;
52 -> 76 ;
77 [label="FLAG_OWN_CAR_Y <= 0.5\ngini = 0.151\nsamples = 21512\nvalue = [19739, 1773]", fillcolor="#e58139e8"] ;
3 -> 77 ;
78 [label="FLAG_EMP_PHONE_N <= 0.5\ngini = 0.174\nsamples = 9226\nvalue = [8336, 890]", fillcolor="#e58139e4"] ;
77 -> 78 ;
79 [label="FLAG_DOCUMENT_3_Y <= 0.5\ngini = 0.19\nsamples = 5855\nvalue = [5232, 623]", fillcolor="#e58139e1"] ;
78 -> 79 ;
80 [label="ORGANIZATION_TYPE_Restaurant <= 0.5\ngini = 0.16\nsamples = 1505\nvalue = [1373, 132]", fillcolor="#e58139e6"] ;
79 -> 80 ;
81 [label="ORGANIZATION_TYPE_Construction <= 0.5\ngini = 0.157\nsamples = 1493\nvalue = [1365, 128]", fillcolor="#e58139e7"] ;
80 -> 81 ;
82 [label="ORGANIZATION_TYPE_Transport: type 4 <= 0.5\ngini = 0.15\nsamples = 1435\nvalue = [1318, 117]", fillcolor="#e58139e8"] ;
81 -> 82 ;
83 [label="gini = 0.143\nsamples = 1379\nvalue = [1272, 107]", fillcolor="#e58139ea"] ;
82 -> 83 ;
84 [label="gini = 0.293\nsamples = 56\nvalue = [46, 10]", fillcolor="#e58139c8"] ;
82 -> 84 ;
85 [label="OCCUPATION_TYPE_Core staff <= 0.5\ngini = 0.307\nsamples = 58\nvalue = [47, 11]", fillcolor="#e58139c3"] ;
81 -> 85 ;
86 [label="gini = 0.289\nsamples = 57\nvalue = [47, 10]", fillcolor="#e58139c9"] ;
85 -> 86 ;
87 [label="gini = 0.0\nsamples = 1\nvalue = [0, 1]", fillcolor="#399de5ff"] ;
85 -> 87 ;
88 [label="OCCUPATION_TYPE_Cooking staff <= 0.5\ngini = 0.444\nsamples = 12\nvalue = [8, 4]", fillcolor="#e581397f"] ;
80 -> 88 ;
89 [label="WEEKDAY_APPR_PROCESS_START_FRIDAY <= 0.5\ngini = 0.245\nsamples = 7\nvalue = [6, 1]", fillcolor="#e58139d4"] ;
88 -> 89 ;
90 [label="gini = 0.0\nsamples = 6\nvalue = [6, 0]", fillcolor="#e58139ff"] ;
89 -> 90 ;
91 [label="gini = 0.0\nsamples = 1\nvalue = [0, 1]", fillcolor="#399de5ff"] ;
89 -> 91 ;
92 [label="FLAG_PHONE_N <= 0.5\ngini = 0.48\nsamples = 5\nvalue = [2, 3]", fillcolor="#399de555"] ;
88 -> 92 ;
93 [label="gini = 0.444\nsamples = 3\nvalue = [2, 1]", fillcolor="#e581397f"] ;
92 -> 93 ;
94 [label="gini = 0.0\nsamples = 2\nvalue = [0, 2]", fillcolor="#399de5ff"] ;
92 -> 94 ;
95 [label="REG_CITY_NOT_LIVE_CITY_Y <= 0.5\ngini = 0.2\nsamples = 4350\nvalue = [3859, 491]", fillcolor="#e58139df"] ;
79 -> 95 ;
96 [label="REG_REGION_NOT_WORK_REGION_N <= 0.5\ngini = 0.194\nsamples = 3891\nvalue = [3467, 424]", fillcolor="#e58139e0"] ;
95 -> 96 ;
97 [label="WEEKDAY_APPR_PROCESS_START_WEDNESDAY <= 0.5\ngini = 0.123\nsamples = 319\nvalue = [298, 21]", fillcolor="#e58139ed"] ;
96 -> 97 ;
98 [label="gini = 0.096\nsamples = 276\nvalue = [262, 14]", fillcolor="#e58139f1"] ;
97 -> 98 ;
99 [label="gini = 0.273\nsamples = 43\nvalue = [36, 7]", fillcolor="#e58139cd"] ;
97 -> 99 ;
100 [label="ORGANIZATION_TYPE_Restaurant <= 0.5\ngini = 0.2\nsamples = 3572\nvalue = [3169, 403]", fillcolor="#e58139df"] ;
96 -> 100 ;
101 [label="gini = 0.199\nsamples = 3564\nvalue = [3164, 400]", fillcolor="#e58139df"] ;
100 -> 101 ;
102 [label="gini = 0.469\nsamples = 8\nvalue = [5, 3]", fillcolor="#e5813966"] ;
100 -> 102 ;
103 [label="OCCUPATION_TYPE_Low-skill Laborers <= 0.5\ngini = 0.249\nsamples = 459\nvalue = [392, 67]", fillcolor="#e58139d3"] ;
95 -> 103 ;
104 [label="NAME_HOUSING_TYPE_Municipal apartment <= 0.5\ngini = 0.239\nsamples = 447\nvalue = [385, 62]", fillcolor="#e58139d6"] ;
103 -> 104 ;
105 [label="gini = 0.224\nsamples = 427\nvalue = [372, 55]", fillcolor="#e58139d9"] ;
104 -> 105 ;
106 [label="gini = 0.455\nsamples = 20\nvalue = [13, 7]", fillcolor="#e5813976"] ;
104 -> 106 ;
107 [label="WEEKDAY_APPR_PROCESS_START_WEDNESDAY <= 0.5\ngini = 0.486\nsamples = 12\nvalue = [7, 5]", fillcolor="#e5813949"] ;
103 -> 107 ;
108 [label="gini = 0.494\nsamples = 9\nvalue = [4, 5]", fillcolor="#399de533"] ;
107 -> 108 ;
109 [label="gini = 0.0\nsamples = 3\nvalue = [3, 0]", fillcolor="#e58139ff"] ;
107 -> 109 ;
110 [label="FLAG_EMAIL_Y <= 0.5\ngini = 0.146\nsamples = 3371\nvalue = [3104, 267]", fillcolor="#e58139e9"] ;
78 -> 110 ;
111 [label="NAME_TYPE_SUITE_Children <= 0.5\ngini = 0.143\nsamples = 3287\nvalue = [3032, 255]", fillcolor="#e58139ea"] ;
110 -> 111 ;
112 [label="NAME_TYPE_SUITE_Other_B <= 0.5\ngini = 0.141\nsamples = 3245\nvalue = [2997, 248]", fillcolor="#e58139ea"] ;
111 -> 112 ;
113 [label="WEEKDAY_APPR_PROCESS_START_SUNDAY <= 0.5\ngini = 0.14\nsamples = 3232\nvalue = [2987, 245]", fillcolor="#e58139ea"] ;
112 -> 113 ;
114 [label="gini = 0.136\nsamples = 3083\nvalue = [2856, 227]", fillcolor="#e58139eb"] ;
113 -> 114 ;
115 [label="gini = 0.212\nsamples = 149\nvalue = [131, 18]", fillcolor="#e58139dc"] ;
113 -> 115 ;
116 [label="WEEKDAY_APPR_PROCESS_START_TUESDAY <= 0.5\ngini = 0.355\nsamples = 13\nvalue = [10, 3]", fillcolor="#e58139b3"] ;
112 -> 116 ;
117 [label="gini = 0.198\nsamples = 9\nvalue = [8, 1]", fillcolor="#e58139df"] ;
116 -> 117 ;
118 [label="gini = 0.5\nsamples = 4\nvalue = [2, 2]", fillcolor="#e5813900"] ;
116 -> 118 ;
119 [label="WEEKDAY_APPR_PROCESS_START_THURSDAY <= 0.5\ngini = 0.278\nsamples = 42\nvalue = [35, 7]", fillcolor="#e58139cc"] ;
111 -> 119 ;
120 [label="REG_CITY_NOT_LIVE_CITY_N <= 0.5\ngini = 0.202\nsamples = 35\nvalue = [31, 4]", fillcolor="#e58139de"] ;
119 -> 120 ;
121 [label="gini = 0.5\nsamples = 2\nvalue = [1, 1]", fillcolor="#e5813900"] ;
120 -> 121 ;
122 [label="gini = 0.165\nsamples = 33\nvalue = [30, 3]", fillcolor="#e58139e6"] ;
120 -> 122 ;
123 [label="FLAG_PHONE_Y <= 0.5\ngini = 0.49\nsamples = 7\nvalue = [4, 3]", fillcolor="#e5813940"] ;
119 -> 123 ;
124 [label="gini = 0.444\nsamples = 6\nvalue = [4, 2]", fillcolor="#e581397f"] ;
123 -> 124 ;
125 [label="gini = 0.0\nsamples = 1\nvalue = [0, 1]", fillcolor="#399de5ff"] ;
123 -> 125 ;
126 [label="NAME_HOUSING_TYPE_Municipal apartment <= 0.5\ngini = 0.245\nsamples = 84\nvalue = [72, 12]", fillcolor="#e58139d4"] ;
110 -> 126 ;
127 [label="NAME_TYPE_SUITE_Unaccompanied <= 0.5\ngini = 0.219\nsamples = 80\nvalue = [70, 10]", fillcolor="#e58139db"] ;
126 -> 127 ;
128 [label="WEEKDAY_APPR_PROCESS_START_FRIDAY <= 0.5\ngini = 0.077\nsamples = 25\nvalue = [24, 1]", fillcolor="#e58139f4"] ;
127 -> 128 ;
129 [label="gini = 0.0\nsamples = 21\nvalue = [21, 0]", fillcolor="#e58139ff"] ;
128 -> 129 ;
130 [label="gini = 0.375\nsamples = 4\nvalue = [3, 1]", fillcolor="#e58139aa"] ;
128 -> 130 ;
131 [label="WEEKDAY_APPR_PROCESS_START_TUESDAY <= 0.5\ngini = 0.274\nsamples = 55\nvalue = [46, 9]", fillcolor="#e58139cd"] ;
127 -> 131 ;
132 [label="gini = 0.315\nsamples = 46\nvalue = [37, 9]", fillcolor="#e58139c1"] ;
131 -> 132 ;
133 [label="gini = 0.0\nsamples = 9\nvalue = [9, 0]", fillcolor="#e58139ff"] ;
131 -> 133 ;
134 [label="FLAG_DOCUMENT_6_N <= 0.5\ngini = 0.5\nsamples = 4\nvalue = [2, 2]", fillcolor="#e5813900"] ;
126 -> 134 ;
135 [label="gini = 0.0\nsamples = 2\nvalue = [0, 2]", fillcolor="#399de5ff"] ;
134 -> 135 ;
136 [label="gini = 0.0\nsamples = 2\nvalue = [2, 0]", fillcolor="#e58139ff"] ;
134 -> 136 ;
137 [label="FLAG_DOCUMENT_3_Y <= 0.5\ngini = 0.133\nsamples = 12286\nvalue = [11403, 883]", fillcolor="#e58139eb"] ;
77 -> 137 ;
138 [label="NAME_INCOME_TYPE_Unemployed <= 0.5\ngini = 0.111\nsamples = 5093\nvalue = [4792, 301]", fillcolor="#e58139ef"] ;
137 -> 138 ;
139 [label="ORGANIZATION_TYPE_Trade: type 1 <= 0.5\ngini = 0.111\nsamples = 5090\nvalue = [4791, 299]", fillcolor="#e58139ef"] ;
138 -> 139 ;
140 [label="OCCUPATION_TYPE_Realty agents <= 0.5\ngini = 0.11\nsamples = 5089\nvalue = [4791, 298]", fillcolor="#e58139ef"] ;
139 -> 140 ;
141 [label="NAME_EDUCATION_TYPE_Lower secondary <= 0.5\ngini = 0.11\nsamples = 5088\nvalue = [4791, 297]", fillcolor="#e58139ef"] ;
140 -> 141 ;
142 [label="gini = 0.108\nsamples = 5016\nvalue = [4730, 286]", fillcolor="#e58139f0"] ;
141 -> 142 ;
143 [label="gini = 0.259\nsamples = 72\nvalue = [61, 11]", fillcolor="#e58139d1"] ;
141 -> 143 ;
144 [label="gini = 0.0\nsamples = 1\nvalue = [0, 1]", fillcolor="#399de5ff"] ;
140 -> 144 ;
145 [label="gini = 0.0\nsamples = 1\nvalue = [0, 1]", fillcolor="#399de5ff"] ;
139 -> 145 ;
146 [label="NAME_EDUCATION_TYPE_Secondary / secondary special <= 0.5\ngini = 0.444\nsamples = 3\nvalue = [1, 2]", fillcolor="#399de57f"] ;
138 -> 146 ;
147 [label="gini = 0.0\nsamples = 1\nvalue = [1, 0]", fillcolor="#e58139ff"] ;
146 -> 147 ;
148 [label="gini = 0.0\nsamples = 2\nvalue = [0, 2]", fillcolor="#399de5ff"] ;
146 -> 148 ;
149 [label="REG_CITY_NOT_WORK_CITY_Y <= 0.5\ngini = 0.149\nsamples = 7193\nvalue = [6611, 582]", fillcolor="#e58139e9"] ;
137 -> 149 ;
150 [label="ORGANIZATION_TYPE_Industry: type 8 <= 0.5\ngini = 0.137\nsamples = 5200\nvalue = [4816, 384]", fillcolor="#e58139eb"] ;
149 -> 150 ;
151 [label="NAME_HOUSING_TYPE_With parents <= 0.5\ngini = 0.136\nsamples = 5199\nvalue = [4816, 383]", fillcolor="#e58139eb"] ;
150 -> 151 ;
152 [label="ORGANIZATION_TYPE_Bank <= 0.5\ngini = 0.133\nsamples = 5040\nvalue = [4679, 361]", fillcolor="#e58139eb"] ;
151 -> 152 ;
153 [label="gini = 0.132\nsamples = 5030\nvalue = [4672, 358]", fillcolor="#e58139eb"] ;
152 -> 153 ;
154 [label="gini = 0.42\nsamples = 10\nvalue = [7, 3]", fillcolor="#e5813992"] ;
152 -> 154 ;
155 [label="OCCUPATION_TYPE_Low-skill Laborers <= 0.5\ngini = 0.238\nsamples = 159\nvalue = [137, 22]", fillcolor="#e58139d6"] ;
151 -> 155 ;
156 [label="gini = 0.23\nsamples = 158\nvalue = [137, 21]", fillcolor="#e58139d8"] ;
155 -> 156 ;
157 [label="gini = 0.0\nsamples = 1\nvalue = [0, 1]", fillcolor="#399de5ff"] ;
155 -> 157 ;
158 [label="gini = 0.0\nsamples = 1\nvalue = [0, 1]", fillcolor="#399de5ff"] ;
150 -> 158 ;
159 [label="ORGANIZATION_TYPE_Transport: type 1 <= 0.5\ngini = 0.179\nsamples = 1993\nvalue = [1795, 198]", fillcolor="#e58139e3"] ;
149 -> 159 ;
160 [label="ORGANIZATION_TYPE_University <= 0.5\ngini = 0.178\nsamples = 1990\nvalue = [1794, 196]", fillcolor="#e58139e3"] ;
159 -> 160 ;
161 [label="OCCUPATION_TYPE_Waiters/barmen staff <= 0.5\ngini = 0.176\nsamples = 1987\nvalue = [1793, 194]", fillcolor="#e58139e3"] ;
160 -> 161 ;
162 [label="gini = 0.175\nsamples = 1986\nvalue = [1793, 193]", fillcolor="#e58139e4"] ;
161 -> 162 ;
163 [label="gini = 0.0\nsamples = 1\nvalue = [0, 1]", fillcolor="#399de5ff"] ;
161 -> 163 ;
164 [label="NAME_EDUCATION_TYPE_Incomplete higher <= 0.5\ngini = 0.444\nsamples = 3\nvalue = [1, 2]", fillcolor="#399de57f"] ;
160 -> 164 ;
165 [label="gini = 0.0\nsamples = 2\nvalue = [0, 2]", fillcolor="#399de5ff"] ;
164 -> 165 ;
166 [label="gini = 0.0\nsamples = 1\nvalue = [1, 0]", fillcolor="#e58139ff"] ;
164 -> 166 ;
167 [label="OCCUPATION_TYPE_Drivers <= 0.5\ngini = 0.444\nsamples = 3\nvalue = [1, 2]", fillcolor="#399de57f"] ;
159 -> 167 ;
168 [label="gini = 0.0\nsamples = 2\nvalue = [0, 2]", fillcolor="#399de5ff"] ;
167 -> 168 ;
169 [label="gini = 0.0\nsamples = 1\nvalue = [1, 0]", fillcolor="#e58139ff"] ;
167 -> 169 ;
170 [label="FLAG_DOCUMENT_3_Y <= 0.5\ngini = 0.106\nsamples = 13109\nvalue = [12372, 737]", fillcolor="#e58139f0"] ;
2 -> 170 ;
171 [label="OCCUPATION_TYPE_Drivers <= 0.5\ngini = 0.082\nsamples = 6539\nvalue = [6258, 281]", fillcolor="#e58139f4"] ;
170 -> 171 ;
172 [label="ORGANIZATION_TYPE_Religion <= 0.5\ngini = 0.077\nsamples = 6206\nvalue = [5956, 250]", fillcolor="#e58139f4"] ;
171 -> 172 ;
173 [label="NAME_FAMILY_STATUS_Married <= 0.5\ngini = 0.077\nsamples = 6202\nvalue = [5954, 248]", fillcolor="#e58139f4"] ;
172 -> 173 ;
174 [label="OCCUPATION_TYPE_Medicine staff <= 0.5\ngini = 0.107\nsamples = 1676\nvalue = [1581, 95]", fillcolor="#e58139f0"] ;
173 -> 174 ;
175 [label="ORGANIZATION_TYPE_Advertising <= 0.5\ngini = 0.106\nsamples = 1675\nvalue = [1581, 94]", fillcolor="#e58139f0"] ;
174 -> 175 ;
176 [label="NAME_FAMILY_STATUS_Single / not married <= 0.5\ngini = 0.105\nsamples = 1673\nvalue = [1580, 93]", fillcolor="#e58139f0"] ;
175 -> 176 ;
177 [label="gini = 0.132\nsamples = 645\nvalue = [599, 46]", fillcolor="#e58139eb"] ;
176 -> 177 ;
178 [label="gini = 0.087\nsamples = 1028\nvalue = [981, 47]", fillcolor="#e58139f3"] ;
176 -> 178 ;
179 [label="FLAG_OWN_CAR_Y <= 0.5\ngini = 0.5\nsamples = 2\nvalue = [1, 1]", fillcolor="#e5813900"] ;
175 -> 179 ;
180 [label="gini = 0.0\nsamples = 1\nvalue = [0, 1]", fillcolor="#399de5ff"] ;
179 -> 180 ;
181 [label="gini = 0.0\nsamples = 1\nvalue = [1, 0]", fillcolor="#e58139ff"] ;
179 -> 181 ;
182 [label="gini = 0.0\nsamples = 1\nvalue = [0, 1]", fillcolor="#399de5ff"] ;
174 -> 182 ;
183 [label="OCCUPATION_TYPE_Private service staff <= 0.5\ngini = 0.065\nsamples = 4526\nvalue = [4373, 153]", fillcolor="#e58139f6"] ;
173 -> 183 ;
184 [label="NAME_CONTRACT_TYPE_Revolving loans <= 0.5\ngini = 0.065\nsamples = 4521\nvalue = [4370, 151]", fillcolor="#e58139f6"] ;
183 -> 184 ;
185 [label="NAME_INCOME_TYPE_State servant <= 0.5\ngini = 0.076\nsamples = 3284\nvalue = [3154, 130]", fillcolor="#e58139f4"] ;
184 -> 185 ;
186 [label="gini = 0.084\nsamples = 2720\nvalue = [2601, 119]", fillcolor="#e58139f3"] ;
185 -> 186 ;
187 [label="gini = 0.038\nsamples = 564\nvalue = [553, 11]", fillcolor="#e58139fa"] ;
185 -> 187 ;
188 [label="OCCUPATION_TYPE_Secretaries <= 0.5\ngini = 0.033\nsamples = 1237\nvalue = [1216, 21]", fillcolor="#e58139fb"] ;
184 -> 188 ;
189 [label="gini = 0.032\nsamples = 1236\nvalue = [1216, 20]", fillcolor="#e58139fb"] ;
188 -> 189 ;
190 [label="gini = 0.0\nsamples = 1\nvalue = [0, 1]", fillcolor="#399de5ff"] ;
188 -> 190 ;
191 [label="FLAG_DOCUMENT_8_N <= 0.5\ngini = 0.48\nsamples = 5\nvalue = [3, 2]", fillcolor="#e5813955"] ;
183 -> 191 ;
192 [label="REG_CITY_NOT_LIVE_CITY_Y <= 0.5\ngini = 0.444\nsamples = 3\nvalue = [1, 2]", fillcolor="#399de57f"] ;
191 -> 192 ;
193 [label="gini = 0.0\nsamples = 1\nvalue = [0, 1]", fillcolor="#399de5ff"] ;
192 -> 193 ;
194 [label="gini = 0.5\nsamples = 2\nvalue = [1, 1]", fillcolor="#e5813900"] ;
192 -> 194 ;
195 [label="gini = 0.0\nsamples = 2\nvalue = [2, 0]", fillcolor="#e58139ff"] ;
191 -> 195 ;
196 [label="WEEKDAY_APPR_PROCESS_START_TUESDAY <= 0.5\ngini = 0.5\nsamples = 4\nvalue = [2, 2]", fillcolor="#e5813900"] ;
172 -> 196 ;
197 [label="WEEKDAY_APPR_PROCESS_START_WEDNESDAY <= 0.5\ngini = 0.444\nsamples = 3\nvalue = [2, 1]", fillcolor="#e581397f"] ;
196 -> 197 ;
198 [label="gini = 0.0\nsamples = 2\nvalue = [2, 0]", fillcolor="#e58139ff"] ;
197 -> 198 ;
199 [label="gini = 0.0\nsamples = 1\nvalue = [0, 1]", fillcolor="#399de5ff"] ;
197 -> 199 ;
200 [label="gini = 0.0\nsamples = 1\nvalue = [0, 1]", fillcolor="#399de5ff"] ;
196 -> 200 ;
201 [label="NAME_TYPE_SUITE_Other_B <= 0.5\ngini = 0.169\nsamples = 333\nvalue = [302, 31]", fillcolor="#e58139e5"] ;
171 -> 201 ;
202 [label="ORGANIZATION_TYPE_Realtor <= 0.5\ngini = 0.164\nsamples = 332\nvalue = [302, 30]", fillcolor="#e58139e6"] ;
201 -> 202 ;
203 [label="ORGANIZATION_TYPE_Postal <= 0.5\ngini = 0.16\nsamples = 331\nvalue = [302, 29]", fillcolor="#e58139e7"] ;
202 -> 203 ;
204 [label="ORGANIZATION_TYPE_Security Ministries <= 0.5\ngini = 0.155\nsamples = 330\nvalue = [302, 28]", fillcolor="#e58139e7"] ;
203 -> 204 ;
205 [label="NAME_HOUSING_TYPE_Office apartment <= 0.5\ngini = 0.147\nsamples = 326\nvalue = [300, 26]", fillcolor="#e58139e9"] ;
204 -> 205 ;
206 [label="gini = 0.142\nsamples = 325\nvalue = [300, 25]", fillcolor="#e58139ea"] ;
205 -> 206 ;
207 [label="gini = 0.0\nsamples = 1\nvalue = [0, 1]", fillcolor="#399de5ff"] ;
205 -> 207 ;
208 [label="NAME_FAMILY_STATUS_Civil marriage <= 0.5\ngini = 0.5\nsamples = 4\nvalue = [2, 2]", fillcolor="#e5813900"] ;
204 -> 208 ;
209 [label="gini = 0.444\nsamples = 3\nvalue = [1, 2]", fillcolor="#399de57f"] ;
208 -> 209 ;
210 [label="gini = 0.0\nsamples = 1\nvalue = [1, 0]", fillcolor="#e58139ff"] ;
208 -> 210 ;
211 [label="gini = 0.0\nsamples = 1\nvalue = [0, 1]", fillcolor="#399de5ff"] ;
203 -> 211 ;
212 [label="gini = 0.0\nsamples = 1\nvalue = [0, 1]", fillcolor="#399de5ff"] ;
202 -> 212 ;
213 [label="gini = 0.0\nsamples = 1\nvalue = [0, 1]", fillcolor="#399de5ff"] ;
201 -> 213 ;
214 [label="NAME_FAMILY_STATUS_Married <= 0.5\ngini = 0.129\nsamples = 6570\nvalue = [6114, 456]", fillcolor="#e58139ec"] ;
170 -> 214 ;
215 [label="ORGANIZATION_TYPE_Mobile <= 0.5\ngini = 0.173\nsamples = 1751\nvalue = [1584, 167]", fillcolor="#e58139e4"] ;
214 -> 215 ;
216 [label="ORGANIZATION_TYPE_Trade: type 3 <= 0.5\ngini = 0.172\nsamples = 1750\nvalue = [1584, 166]", fillcolor="#e58139e4"] ;
215 -> 216 ;
217 [label="FLAG_OWN_CAR_Y <= 0.5\ngini = 0.17\nsamples = 1743\nvalue = [1580, 163]", fillcolor="#e58139e5"] ;
216 -> 217 ;
218 [label="ORGANIZATION_TYPE_Industry: type 3 <= 0.5\ngini = 0.201\nsamples = 901\nvalue = [799, 102]", fillcolor="#e58139de"] ;
217 -> 218 ;
219 [label="FLAG_PHONE_Y <= 0.5\ngini = 0.199\nsamples = 900\nvalue = [799, 101]", fillcolor="#e58139df"] ;
218 -> 219 ;
220 [label="gini = 0.225\nsamples = 613\nvalue = [534, 79]", fillcolor="#e58139d9"] ;
219 -> 220 ;
221 [label="gini = 0.142\nsamples = 287\nvalue = [265, 22]", fillcolor="#e58139ea"] ;
219 -> 221 ;
222 [label="gini = 0.0\nsamples = 1\nvalue = [0, 1]", fillcolor="#399de5ff"] ;
218 -> 222 ;
223 [label="ORGANIZATION_TYPE_Kindergarten <= 0.5\ngini = 0.134\nsamples = 842\nvalue = [781, 61]", fillcolor="#e58139eb"] ;
217 -> 223 ;
224 [label="OCCUPATION_TYPE_Laborers <= 0.5\ngini = 0.133\nsamples = 840\nvalue = [780, 60]", fillcolor="#e58139eb"] ;
223 -> 224 ;
225 [label="gini = 0.118\nsamples = 728\nvalue = [682, 46]", fillcolor="#e58139ee"] ;
224 -> 225 ;
226 [label="gini = 0.219\nsamples = 112\nvalue = [98, 14]", fillcolor="#e58139db"] ;
224 -> 226 ;
227 [label="REG_CITY_NOT_LIVE_CITY_Y <= 0.5\ngini = 0.5\nsamples = 2\nvalue = [1, 1]", fillcolor="#e5813900"] ;
223 -> 227 ;
228 [label="gini = 0.0\nsamples = 1\nvalue = [0, 1]", fillcolor="#399de5ff"] ;
227 -> 228 ;
229 [label="gini = 0.0\nsamples = 1\nvalue = [1, 0]", fillcolor="#e58139ff"] ;
227 -> 229 ;
230 [label="WEEKDAY_APPR_PROCESS_START_MONDAY <= 0.5\ngini = 0.49\nsamples = 7\nvalue = [4, 3]", fillcolor="#e5813940"] ;
216 -> 230 ;
231 [label="FLAG_OWN_REALTY_N <= 0.5\ngini = 0.48\nsamples = 5\nvalue = [2, 3]", fillcolor="#399de555"] ;
230 -> 231 ;
232 [label="NAME_TYPE_SUITE_Unaccompanied <= 0.5\ngini = 0.444\nsamples = 3\nvalue = [2, 1]", fillcolor="#e581397f"] ;
231 -> 232 ;
233 [label="gini = 0.0\nsamples = 1\nvalue = [1, 0]", fillcolor="#e58139ff"] ;
232 -> 233 ;
234 [label="gini = 0.5\nsamples = 2\nvalue = [1, 1]", fillcolor="#e5813900"] ;
232 -> 234 ;
235 [label="gini = 0.0\nsamples = 2\nvalue = [0, 2]", fillcolor="#399de5ff"] ;
231 -> 235 ;
236 [label="gini = 0.0\nsamples = 2\nvalue = [2, 0]", fillcolor="#e58139ff"] ;
230 -> 236 ;
237 [label="gini = 0.0\nsamples = 1\nvalue = [0, 1]", fillcolor="#399de5ff"] ;
215 -> 237 ;
238 [label="FLAG_DOCUMENT_11_N <= 0.5\ngini = 0.113\nsamples = 4819\nvalue = [4530, 289]", fillcolor="#e58139ef"] ;
214 -> 238 ;
239 [label="gini = 0.0\nsamples = 1\nvalue = [0, 1]", fillcolor="#399de5ff"] ;
238 -> 239 ;
240 [label="ORGANIZATION_TYPE_Industry: type 4 <= 0.5\ngini = 0.112\nsamples = 4818\nvalue = [4530, 288]", fillcolor="#e58139ef"] ;
238 -> 240 ;
241 [label="REG_CITY_NOT_LIVE_CITY_N <= 0.5\ngini = 0.112\nsamples = 4808\nvalue = [4523, 285]", fillcolor="#e58139ef"] ;
240 -> 241 ;
242 [label="ORGANIZATION_TYPE_Industry: type 1 <= 0.5\ngini = 0.17\nsamples = 406\nvalue = [368, 38]", fillcolor="#e58139e5"] ;
241 -> 242 ;
243 [label="WEEKDAY_APPR_PROCESS_START_SATURDAY <= 0.5\ngini = 0.166\nsamples = 405\nvalue = [368, 37]", fillcolor="#e58139e5"] ;
242 -> 243 ;
244 [label="gini = 0.142\nsamples = 365\nvalue = [337, 28]", fillcolor="#e58139ea"] ;
243 -> 244 ;
245 [label="gini = 0.349\nsamples = 40\nvalue = [31, 9]", fillcolor="#e58139b5"] ;
243 -> 245 ;
246 [label="gini = 0.0\nsamples = 1\nvalue = [0, 1]", fillcolor="#399de5ff"] ;
242 -> 246 ;
247 [label="NAME_TYPE_SUITE_Other_A <= 0.5\ngini = 0.106\nsamples = 4402\nvalue = [4155, 247]", fillcolor="#e58139f0"] ;
241 -> 247 ;
248 [label="NAME_INCOME_TYPE_State servant <= 0.5\ngini = 0.105\nsamples = 4396\nvalue = [4151, 245]", fillcolor="#e58139f0"] ;
247 -> 248 ;
249 [label="gini = 0.113\nsamples = 3436\nvalue = [3230, 206]", fillcolor="#e58139ef"] ;
248 -> 249 ;
250 [label="gini = 0.078\nsamples = 960\nvalue = [921, 39]", fillcolor="#e58139f4"] ;
248 -> 250 ;
251 [label="OCCUPATION_TYPE_High skill tech staff <= 0.5\ngini = 0.444\nsamples = 6\nvalue = [4, 2]", fillcolor="#e581397f"] ;
247 -> 251 ;
252 [label="gini = 0.0\nsamples = 3\nvalue = [3, 0]", fillcolor="#e58139ff"] ;
251 -> 252 ;
253 [label="gini = 0.444\nsamples = 3\nvalue = [1, 2]", fillcolor="#399de57f"] ;
251 -> 253 ;
254 [label="OCCUPATION_TYPE_Sales staff <= 0.5\ngini = 0.42\nsamples = 10\nvalue = [7, 3]", fillcolor="#e5813992"] ;
240 -> 254 ;
255 [label="FLAG_PHONE_Y <= 0.5\ngini = 0.346\nsamples = 9\nvalue = [7, 2]", fillcolor="#e58139b6"] ;
254 -> 255 ;
256 [label="OCCUPATION_TYPE_Laborers <= 0.5\ngini = 0.219\nsamples = 8\nvalue = [7, 1]", fillcolor="#e58139db"] ;
255 -> 256 ;
257 [label="gini = 0.0\nsamples = 6\nvalue = [6, 0]", fillcolor="#e58139ff"] ;
256 -> 257 ;
258 [label="gini = 0.5\nsamples = 2\nvalue = [1, 1]", fillcolor="#e5813900"] ;
256 -> 258 ;
259 [label="gini = 0.0\nsamples = 1\nvalue = [0, 1]", fillcolor="#399de5ff"] ;
255 -> 259 ;
260 [label="gini = 0.0\nsamples = 1\nvalue = [0, 1]", fillcolor="#399de5ff"] ;
254 -> 260 ;
261 [label="OCCUPATION_TYPE_Sales staff <= 0.5\ngini = 0.108\nsamples = 105668\nvalue = [99602, 6066]", fillcolor="#e58139ef"] ;
1 -> 261 ;
262 [label="NAME_EDUCATION_TYPE_Higher education <= 0.5\ngini = 0.103\nsamples = 96016\nvalue = [90797, 5219]", fillcolor="#e58139f0"] ;
261 -> 262 ;
263 [label="REG_CITY_NOT_LIVE_CITY_N <= 0.5\ngini = 0.112\nsamples = 69857\nvalue = [65696, 4161]", fillcolor="#e58139ef"] ;
262 -> 263 ;
264 [label="ORGANIZATION_TYPE_Security <= 0.5\ngini = 0.184\nsamples = 3389\nvalue = [3042, 347]", fillcolor="#e58139e2"] ;
263 -> 264 ;
265 [label="ORGANIZATION_TYPE_Restaurant <= 0.5\ngini = 0.182\nsamples = 3374\nvalue = [3032, 342]", fillcolor="#e58139e2"] ;
264 -> 265 ;
266 [label="NAME_FAMILY_STATUS_Civil marriage <= 0.5\ngini = 0.179\nsamples = 3332\nvalue = [3000, 332]", fillcolor="#e58139e3"] ;
265 -> 266 ;
267 [label="ORGANIZATION_TYPE_Industry: type 5 <= 0.5\ngini = 0.17\nsamples = 2867\nvalue = [2598, 269]", fillcolor="#e58139e5"] ;
266 -> 267 ;
268 [label="ORGANIZATION_TYPE_Industry: type 1 <= 0.5\ngini = 0.169\nsamples = 2862\nvalue = [2595, 267]", fillcolor="#e58139e5"] ;
267 -> 268 ;
269 [label="gini = 0.168\nsamples = 2856\nvalue = [2591, 265]", fillcolor="#e58139e5"] ;
268 -> 269 ;
270 [label="gini = 0.444\nsamples = 6\nvalue = [4, 2]", fillcolor="#e581397f"] ;
268 -> 270 ;
271 [label="FLAG_DOCUMENT_3_Y <= 0.5\ngini = 0.48\nsamples = 5\nvalue = [3, 2]", fillcolor="#e5813955"] ;
267 -> 271 ;
272 [label="gini = 0.0\nsamples = 2\nvalue = [0, 2]", fillcolor="#399de5ff"] ;
271 -> 272 ;
273 [label="gini = 0.0\nsamples = 3\nvalue = [3, 0]", fillcolor="#e58139ff"] ;
271 -> 273 ;
274 [label="ORGANIZATION_TYPE_Cleaning <= 0.5\ngini = 0.234\nsamples = 465\nvalue = [402, 63]", fillcolor="#e58139d7"] ;
266 -> 274 ;
275 [label="NAME_EDUCATION_TYPE_Secondary / secondary special <= 0.5\ngini = 0.232\nsamples = 464\nvalue = [402, 62]", fillcolor="#e58139d8"] ;
274 -> 275 ;
276 [label="gini = 0.081\nsamples = 71\nvalue = [68, 3]", fillcolor="#e58139f4"] ;
275 -> 276 ;
277 [label="gini = 0.255\nsamples = 393\nvalue = [334, 59]", fillcolor="#e58139d2"] ;
275 -> 277 ;
278 [label="gini = 0.0\nsamples = 1\nvalue = [0, 1]", fillcolor="#399de5ff"] ;
274 -> 278 ;
279 [label="REG_REGION_NOT_LIVE_REGION_N <= 0.5\ngini = 0.363\nsamples = 42\nvalue = [32, 10]", fillcolor="#e58139af"] ;
265 -> 279 ;
280 [label="gini = 0.0\nsamples = 9\nvalue = [9, 0]", fillcolor="#e58139ff"] ;
279 -> 280 ;
281 [label="WEEKDAY_APPR_PROCESS_START_MONDAY <= 0.5\ngini = 0.422\nsamples = 33\nvalue = [23, 10]", fillcolor="#e5813990"] ;
279 -> 281 ;
282 [label="NAME_FAMILY_STATUS_Civil marriage <= 0.5\ngini = 0.466\nsamples = 27\nvalue = [17, 10]", fillcolor="#e5813969"] ;
281 -> 282 ;
283 [label="gini = 0.486\nsamples = 24\nvalue = [14, 10]", fillcolor="#e5813949"] ;
282 -> 283 ;
284 [label="gini = 0.0\nsamples = 3\nvalue = [3, 0]", fillcolor="#e58139ff"] ;
282 -> 284 ;
285 [label="gini = 0.0\nsamples = 6\nvalue = [6, 0]", fillcolor="#e58139ff"] ;
281 -> 285 ;
286 [label="LIVE_CITY_NOT_WORK_CITY_N <= 0.5\ngini = 0.444\nsamples = 15\nvalue = [10, 5]", fillcolor="#e581397f"] ;
264 -> 286 ;
287 [label="WEEKDAY_APPR_PROCESS_START_THURSDAY <= 0.5\ngini = 0.375\nsamples = 4\nvalue = [1, 3]", fillcolor="#399de5aa"] ;
286 -> 287 ;
288 [label="gini = 0.0\nsamples = 3\nvalue = [0, 3]", fillcolor="#399de5ff"] ;
287 -> 288 ;
289 [label="gini = 0.0\nsamples = 1\nvalue = [1, 0]", fillcolor="#e58139ff"] ;
287 -> 289 ;
290 [label="WEEKDAY_APPR_PROCESS_START_FRIDAY <= 0.5\ngini = 0.298\nsamples = 11\nvalue = [9, 2]", fillcolor="#e58139c6"] ;
286 -> 290 ;
291 [label="NAME_FAMILY_STATUS_Married <= 0.5\ngini = 0.18\nsamples = 10\nvalue = [9, 1]", fillcolor="#e58139e3"] ;
290 -> 291 ;
292 [label="FLAG_OWN_REALTY_N <= 0.5\ngini = 0.5\nsamples = 2\nvalue = [1, 1]", fillcolor="#e5813900"] ;
291 -> 292 ;
293 [label="gini = 0.0\nsamples = 1\nvalue = [0, 1]", fillcolor="#399de5ff"] ;
292 -> 293 ;
294 [label="gini = 0.0\nsamples = 1\nvalue = [1, 0]", fillcolor="#e58139ff"] ;
292 -> 294 ;
295 [label="gini = 0.0\nsamples = 8\nvalue = [8, 0]", fillcolor="#e58139ff"] ;
291 -> 295 ;
296 [label="gini = 0.0\nsamples = 1\nvalue = [0, 1]", fillcolor="#399de5ff"] ;
290 -> 296 ;
297 [label="NAME_INCOME_TYPE_Pensioner <= 0.5\ngini = 0.108\nsamples = 66468\nvalue = [62654, 3814]", fillcolor="#e58139ef"] ;
263 -> 297 ;
298 [label="ORGANIZATION_TYPE_None <= 0.5\ngini = 0.124\nsamples = 28359\nvalue = [26480, 1879]", fillcolor="#e58139ed"] ;
297 -> 298 ;
299 [label="NAME_FAMILY_STATUS_Single / not married <= 0.5\ngini = 0.123\nsamples = 28347\nvalue = [26474, 1873]", fillcolor="#e58139ed"] ;
298 -> 299 ;
300 [label="NAME_INCOME_TYPE_Maternity leave <= 0.5\ngini = 0.117\nsamples = 24573\nvalue = [23035, 1538]", fillcolor="#e58139ee"] ;
299 -> 300 ;
301 [label="FLAG_DOCUMENT_3_Y <= 0.5\ngini = 0.117\nsamples = 24571\nvalue = [23035, 1536]", fillcolor="#e58139ee"] ;
300 -> 301 ;
302 [label="gini = 0.091\nsamples = 4082\nvalue = [3888, 194]", fillcolor="#e58139f2"] ;
301 -> 302 ;
303 [label="gini = 0.122\nsamples = 20489\nvalue = [19147, 1342]", fillcolor="#e58139ed"] ;
301 -> 303 ;
304 [label="gini = 0.0\nsamples = 2\nvalue = [0, 2]", fillcolor="#399de5ff"] ;
300 -> 304 ;
305 [label="NAME_HOUSING_TYPE_With parents <= 0.5\ngini = 0.162\nsamples = 3774\nvalue = [3439, 335]", fillcolor="#e58139e6"] ;
299 -> 305 ;
306 [label="ORGANIZATION_TYPE_Advertising <= 0.5\ngini = 0.154\nsamples = 3446\nvalue = [3157, 289]", fillcolor="#e58139e8"] ;
305 -> 306 ;
307 [label="gini = 0.153\nsamples = 3441\nvalue = [3154, 287]", fillcolor="#e58139e8"] ;
306 -> 307 ;
308 [label="gini = 0.48\nsamples = 5\nvalue = [3, 2]", fillcolor="#e5813955"] ;
306 -> 308 ;
309 [label="OCCUPATION_TYPE_Cleaning staff <= 0.5\ngini = 0.241\nsamples = 328\nvalue = [282, 46]", fillcolor="#e58139d5"] ;
305 -> 309 ;
310 [label="gini = 0.234\nsamples = 325\nvalue = [281, 44]", fillcolor="#e58139d7"] ;
309 -> 310 ;
311 [label="gini = 0.444\nsamples = 3\nvalue = [1, 2]", fillcolor="#399de57f"] ;
309 -> 311 ;
312 [label="NAME_FAMILY_STATUS_Married <= 0.5\ngini = 0.5\nsamples = 12\nvalue = [6, 6]", fillcolor="#e5813900"] ;
298 -> 312 ;
313 [label="WEEKDAY_APPR_PROCESS_START_WEDNESDAY <= 0.5\ngini = 0.375\nsamples = 8\nvalue = [6, 2]", fillcolor="#e58139aa"] ;
312 -> 313 ;
314 [label="WEEKDAY_APPR_PROCESS_START_TUESDAY <= 0.5\ngini = 0.245\nsamples = 7\nvalue = [6, 1]", fillcolor="#e58139d4"] ;
313 -> 314 ;
315 [label="gini = 0.0\nsamples = 5\nvalue = [5, 0]", fillcolor="#e58139ff"] ;
314 -> 315 ;
316 [label="gini = 0.5\nsamples = 2\nvalue = [1, 1]", fillcolor="#e5813900"] ;
314 -> 316 ;
317 [label="gini = 0.0\nsamples = 1\nvalue = [0, 1]", fillcolor="#399de5ff"] ;
313 -> 317 ;
318 [label="gini = 0.0\nsamples = 4\nvalue = [0, 4]", fillcolor="#399de5ff"] ;
312 -> 318 ;
319 [label="NAME_FAMILY_STATUS_Married <= 0.5\ngini = 0.096\nsamples = 38109\nvalue = [36174, 1935]", fillcolor="#e58139f1"] ;
297 -> 319 ;
320 [label="FLAG_OWN_CAR_N <= 0.5\ngini = 0.104\nsamples = 17395\nvalue = [16441, 954]", fillcolor="#e58139f0"] ;
319 -> 320 ;
321 [label="WEEKDAY_APPR_PROCESS_START_WEDNESDAY <= 0.5\ngini = 0.078\nsamples = 1183\nvalue = [1135, 48]", fillcolor="#e58139f4"] ;
320 -> 321 ;
322 [label="NAME_EDUCATION_TYPE_Lower secondary <= 0.5\ngini = 0.066\nsamples = 967\nvalue = [934, 33]", fillcolor="#e58139f6"] ;
321 -> 322 ;
323 [label="gini = 0.063\nsamples = 950\nvalue = [919, 31]", fillcolor="#e58139f6"] ;
322 -> 323 ;
324 [label="gini = 0.208\nsamples = 17\nvalue = [15, 2]", fillcolor="#e58139dd"] ;
322 -> 324 ;
325 [label="NAME_FAMILY_STATUS_Civil marriage <= 0.5\ngini = 0.129\nsamples = 216\nvalue = [201, 15]", fillcolor="#e58139ec"] ;
321 -> 325 ;
326 [label="gini = 0.099\nsamples = 172\nvalue = [163, 9]", fillcolor="#e58139f1"] ;
325 -> 326 ;
327 [label="gini = 0.236\nsamples = 44\nvalue = [38, 6]", fillcolor="#e58139d7"] ;
325 -> 327 ;
328 [label="NAME_EDUCATION_TYPE_Lower secondary <= 0.5\ngini = 0.106\nsamples = 16212\nvalue = [15306, 906]", fillcolor="#e58139f0"] ;
320 -> 328 ;
329 [label="WEEKDAY_APPR_PROCESS_START_WEDNESDAY <= 0.5\ngini = 0.104\nsamples = 15633\nvalue = [14769, 864]", fillcolor="#e58139f0"] ;
328 -> 329 ;
330 [label="gini = 0.102\nsamples = 12878\nvalue = [12187, 691]", fillcolor="#e58139f1"] ;
329 -> 330 ;
331 [label="gini = 0.118\nsamples = 2755\nvalue = [2582, 173]", fillcolor="#e58139ee"] ;
329 -> 331 ;
332 [label="FLAG_EMAIL_Y <= 0.5\ngini = 0.135\nsamples = 579\nvalue = [537, 42]", fillcolor="#e58139eb"] ;
328 -> 332 ;
333 [label="gini = 0.128\nsamples = 568\nvalue = [529, 39]", fillcolor="#e58139ec"] ;
332 -> 333 ;
334 [label="gini = 0.397\nsamples = 11\nvalue = [8, 3]", fillcolor="#e581399f"] ;
332 -> 334 ;
335 [label="NAME_TYPE_SUITE_Children <= 0.5\ngini = 0.09\nsamples = 20714\nvalue = [19733, 981]", fillcolor="#e58139f2"] ;
319 -> 335 ;
336 [label="NAME_CONTRACT_TYPE_Revolving loans <= 0.5\ngini = 0.089\nsamples = 20302\nvalue = [19350, 952]", fillcolor="#e58139f2"] ;
335 -> 336 ;
337 [label="FLAG_OWN_CAR_Y <= 0.5\ngini = 0.091\nsamples = 19192\nvalue = [18276, 916]", fillcolor="#e58139f2"] ;
336 -> 337 ;
338 [label="gini = 0.093\nsamples = 16278\nvalue = [15483, 795]", fillcolor="#e58139f2"] ;
337 -> 338 ;
339 [label="gini = 0.08\nsamples = 2914\nvalue = [2793, 121]", fillcolor="#e58139f4"] ;
337 -> 339 ;
340 [label="FLAG_DOCUMENT_3_Y <= 0.5\ngini = 0.063\nsamples = 1110\nvalue = [1074, 36]", fillcolor="#e58139f6"] ;
336 -> 340 ;
341 [label="gini = 0.06\nsamples = 1096\nvalue = [1062, 34]", fillcolor="#e58139f7"] ;
340 -> 341 ;
342 [label="gini = 0.245\nsamples = 14\nvalue = [12, 2]", fillcolor="#e58139d4"] ;
340 -> 342 ;
343 [label="WEEKDAY_APPR_PROCESS_START_SUNDAY <= 0.5\ngini = 0.131\nsamples = 412\nvalue = [383, 29]", fillcolor="#e58139ec"] ;
335 -> 343 ;
344 [label="NAME_CONTRACT_TYPE_Revolving loans <= 0.5\ngini = 0.124\nsamples = 392\nvalue = [366, 26]", fillcolor="#e58139ed"] ;
343 -> 344 ;
345 [label="gini = 0.115\nsamples = 374\nvalue = [351, 23]", fillcolor="#e58139ee"] ;
344 -> 345 ;
346 [label="gini = 0.278\nsamples = 18\nvalue = [15, 3]", fillcolor="#e58139cc"] ;
344 -> 346 ;
347 [label="FLAG_DOCUMENT_3_N <= 0.5\ngini = 0.255\nsamples = 20\nvalue = [17, 3]", fillcolor="#e58139d2"] ;
343 -> 347 ;
348 [label="gini = 0.469\nsamples = 8\nvalue = [5, 3]", fillcolor="#e5813966"] ;
347 -> 348 ;
349 [label="gini = 0.0\nsamples = 12\nvalue = [12, 0]", fillcolor="#e58139ff"] ;
347 -> 349 ;
350 [label="REG_CITY_NOT_WORK_CITY_Y <= 0.5\ngini = 0.078\nsamples = 26159\nvalue = [25101, 1058]", fillcolor="#e58139f4"] ;
262 -> 350 ;
351 [label="NAME_CONTRACT_TYPE_Cash loans <= 0.5\ngini = 0.073\nsamples = 22018\nvalue = [21186, 832]", fillcolor="#e58139f5"] ;
350 -> 351 ;
352 [label="OCCUPATION_TYPE_Cooking staff <= 0.5\ngini = 0.041\nsamples = 2528\nvalue = [2475, 53]", fillcolor="#e58139fa"] ;
351 -> 352 ;
353 [label="ORGANIZATION_TYPE_Housing <= 0.5\ngini = 0.039\nsamples = 2521\nvalue = [2471, 50]", fillcolor="#e58139fa"] ;
352 -> 353 ;
354 [label="ORGANIZATION_TYPE_Hotel <= 0.5\ngini = 0.038\nsamples = 2507\nvalue = [2459, 48]", fillcolor="#e58139fa"] ;
353 -> 354 ;
355 [label="ORGANIZATION_TYPE_Mobile <= 0.5\ngini = 0.037\nsamples = 2502\nvalue = [2455, 47]", fillcolor="#e58139fa"] ;
354 -> 355 ;
356 [label="gini = 0.036\nsamples = 2496\nvalue = [2450, 46]", fillcolor="#e58139fa"] ;
355 -> 356 ;
357 [label="gini = 0.278\nsamples = 6\nvalue = [5, 1]", fillcolor="#e58139cc"] ;
355 -> 357 ;
358 [label="NAME_FAMILY_STATUS_Civil marriage <= 0.5\ngini = 0.32\nsamples = 5\nvalue = [4, 1]", fillcolor="#e58139bf"] ;
354 -> 358 ;
359 [label="gini = 0.0\nsamples = 4\nvalue = [4, 0]", fillcolor="#e58139ff"] ;
358 -> 359 ;
360 [label="gini = 0.0\nsamples = 1\nvalue = [0, 1]", fillcolor="#399de5ff"] ;
358 -> 360 ;
361 [label="NAME_TYPE_SUITE_Unaccompanied <= 0.5\ngini = 0.245\nsamples = 14\nvalue = [12, 2]", fillcolor="#e58139d4"] ;
353 -> 361 ;
362 [label="gini = 0.0\nsamples = 1\nvalue = [0, 1]", fillcolor="#399de5ff"] ;
361 -> 362 ;
363 [label="FLAG_WORK_PHONE_Y <= 0.5\ngini = 0.142\nsamples = 13\nvalue = [12, 1]", fillcolor="#e58139ea"] ;
361 -> 363 ;
364 [label="gini = 0.0\nsamples = 11\nvalue = [11, 0]", fillcolor="#e58139ff"] ;
363 -> 364 ;
365 [label="gini = 0.5\nsamples = 2\nvalue = [1, 1]", fillcolor="#e5813900"] ;
363 -> 365 ;
366 [label="NAME_FAMILY_STATUS_Married <= 0.5\ngini = 0.49\nsamples = 7\nvalue = [4, 3]", fillcolor="#e5813940"] ;
352 -> 366 ;
367 [label="gini = 0.0\nsamples = 2\nvalue = [2, 0]", fillcolor="#e58139ff"] ;
366 -> 367 ;
368 [label="ORGANIZATION_TYPE_Business Entity Type 3 <= 0.5\ngini = 0.48\nsamples = 5\nvalue = [2, 3]", fillcolor="#399de555"] ;
366 -> 368 ;
369 [label="gini = 0.0\nsamples = 2\nvalue = [0, 2]", fillcolor="#399de5ff"] ;
368 -> 369 ;
370 [label="NAME_TYPE_SUITE_Family <= 0.5\ngini = 0.444\nsamples = 3\nvalue = [2, 1]", fillcolor="#e581397f"] ;
368 -> 370 ;
371 [label="gini = 0.0\nsamples = 2\nvalue = [2, 0]", fillcolor="#e58139ff"] ;
370 -> 371 ;
372 [label="gini = 0.0\nsamples = 1\nvalue = [0, 1]", fillcolor="#399de5ff"] ;
370 -> 372 ;
373 [label="OCCUPATION_TYPE_Private service staff <= 0.5\ngini = 0.077\nsamples = 19490\nvalue = [18711, 779]", fillcolor="#e58139f4"] ;
351 -> 373 ;
374 [label="FLAG_DOCUMENT_8_Y <= 0.5\ngini = 0.076\nsamples = 19320\nvalue = [18555, 765]", fillcolor="#e58139f4"] ;
373 -> 374 ;
375 [label="NAME_INCOME_TYPE_Commercial associate <= 0.5\ngini = 0.078\nsamples = 17985\nvalue = [17254, 731]", fillcolor="#e58139f4"] ;
374 -> 375 ;
376 [label="FLAG_DOCUMENT_20_Y <= 0.5\ngini = 0.071\nsamples = 9992\nvalue = [9625, 367]", fillcolor="#e58139f5"] ;
375 -> 376 ;
377 [label="gini = 0.071\nsamples = 9990\nvalue = [9624, 366]", fillcolor="#e58139f5"] ;
376 -> 377 ;
378 [label="gini = 0.5\nsamples = 2\nvalue = [1, 1]", fillcolor="#e5813900"] ;
376 -> 378 ;
379 [label="NAME_HOUSING_TYPE_Co-op apartment <= 0.5\ngini = 0.087\nsamples = 7993\nvalue = [7629, 364]", fillcolor="#e58139f3"] ;
375 -> 379 ;
380 [label="gini = 0.086\nsamples = 7959\nvalue = [7600, 359]", fillcolor="#e58139f3"] ;
379 -> 380 ;
381 [label="gini = 0.251\nsamples = 34\nvalue = [29, 5]", fillcolor="#e58139d3"] ;
379 -> 381 ;
382 [label="NAME_HOUSING_TYPE_Co-op apartment <= 0.5\ngini = 0.05\nsamples = 1335\nvalue = [1301, 34]", fillcolor="#e58139f8"] ;
374 -> 382 ;
383 [label="ORGANIZATION_TYPE_Advertising <= 0.5\ngini = 0.047\nsamples = 1328\nvalue = [1296, 32]", fillcolor="#e58139f9"] ;
382 -> 383 ;
384 [label="gini = 0.044\nsamples = 1321\nvalue = [1291, 30]", fillcolor="#e58139f9"] ;
383 -> 384 ;
385 [label="gini = 0.408\nsamples = 7\nvalue = [5, 2]", fillcolor="#e5813999"] ;
383 -> 385 ;
386 [label="WEEKDAY_APPR_PROCESS_START_FRIDAY <= 0.5\ngini = 0.408\nsamples = 7\nvalue = [5, 2]", fillcolor="#e5813999"] ;
382 -> 386 ;
387 [label="gini = 0.0\nsamples = 4\nvalue = [4, 0]", fillcolor="#e58139ff"] ;
386 -> 387 ;
388 [label="gini = 0.444\nsamples = 3\nvalue = [1, 2]", fillcolor="#399de57f"] ;
386 -> 388 ;
389 [label="ORGANIZATION_TYPE_Government <= 0.5\ngini = 0.151\nsamples = 170\nvalue = [156, 14]", fillcolor="#e58139e8"] ;
373 -> 389 ;
390 [label="ORGANIZATION_TYPE_Business Entity Type 1 <= 0.5\ngini = 0.142\nsamples = 169\nvalue = [156, 13]", fillcolor="#e58139ea"] ;
389 -> 390 ;
391 [label="FLAG_OWN_REALTY_Y <= 0.5\ngini = 0.133\nsamples = 167\nvalue = [155, 12]", fillcolor="#e58139eb"] ;
390 -> 391 ;
392 [label="gini = 0.227\nsamples = 46\nvalue = [40, 6]", fillcolor="#e58139d9"] ;
391 -> 392 ;
393 [label="gini = 0.094\nsamples = 121\nvalue = [115, 6]", fillcolor="#e58139f2"] ;
391 -> 393 ;
394 [label="FLAG_PHONE_N <= 0.5\ngini = 0.5\nsamples = 2\nvalue = [1, 1]", fillcolor="#e5813900"] ;
390 -> 394 ;
395 [label="gini = 0.0\nsamples = 1\nvalue = [0, 1]", fillcolor="#399de5ff"] ;
394 -> 395 ;
396 [label="gini = 0.0\nsamples = 1\nvalue = [1, 0]", fillcolor="#e58139ff"] ;
394 -> 396 ;
397 [label="gini = 0.0\nsamples = 1\nvalue = [0, 1]", fillcolor="#399de5ff"] ;
389 -> 397 ;
398 [label="ORGANIZATION_TYPE_Trade: type 5 <= 0.5\ngini = 0.103\nsamples = 4141\nvalue = [3915, 226]", fillcolor="#e58139f0"] ;
350 -> 398 ;
399 [label="ORGANIZATION_TYPE_Restaurant <= 0.5\ngini = 0.103\nsamples = 4140\nvalue = [3915, 225]", fillcolor="#e58139f0"] ;
398 -> 399 ;
400 [label="FLAG_OWN_CAR_N <= 0.5\ngini = 0.101\nsamples = 4118\nvalue = [3898, 220]", fillcolor="#e58139f1"] ;
399 -> 400 ;
401 [label="ORGANIZATION_TYPE_Industry: type 6 <= 0.5\ngini = 0.073\nsamples = 1392\nvalue = [1339, 53]", fillcolor="#e58139f5"] ;
400 -> 401 ;
402 [label="NAME_INCOME_TYPE_State servant <= 0.5\ngini = 0.072\nsamples = 1390\nvalue = [1338, 52]", fillcolor="#e58139f5"] ;
401 -> 402 ;
403 [label="gini = 0.054\nsamples = 1000\nvalue = [972, 28]", fillcolor="#e58139f8"] ;
402 -> 403 ;
404 [label="gini = 0.116\nsamples = 390\nvalue = [366, 24]", fillcolor="#e58139ee"] ;
402 -> 404 ;
405 [label="FLAG_WORK_PHONE_Y <= 0.5\ngini = 0.5\nsamples = 2\nvalue = [1, 1]", fillcolor="#e5813900"] ;
401 -> 405 ;
406 [label="gini = 0.0\nsamples = 1\nvalue = [0, 1]", fillcolor="#399de5ff"] ;
405 -> 406 ;
407 [label="gini = 0.0\nsamples = 1\nvalue = [1, 0]", fillcolor="#e58139ff"] ;
405 -> 407 ;
408 [label="ORGANIZATION_TYPE_Realtor <= 0.5\ngini = 0.115\nsamples = 2726\nvalue = [2559, 167]", fillcolor="#e58139ee"] ;
400 -> 408 ;
409 [label="ORGANIZATION_TYPE_Transport: type 1 <= 0.5\ngini = 0.114\nsamples = 2721\nvalue = [2556, 165]", fillcolor="#e58139ef"] ;
408 -> 409 ;
410 [label="gini = 0.113\nsamples = 2719\nvalue = [2555, 164]", fillcolor="#e58139ef"] ;
409 -> 410 ;
411 [label="gini = 0.5\nsamples = 2\nvalue = [1, 1]", fillcolor="#e5813900"] ;
409 -> 411 ;
412 [label="FLAG_EMAIL_N <= 0.5\ngini = 0.48\nsamples = 5\nvalue = [3, 2]", fillcolor="#e5813955"] ;
408 -> 412 ;
413 [label="gini = 0.0\nsamples = 2\nvalue = [0, 2]", fillcolor="#399de5ff"] ;
412 -> 413 ;
414 [label="gini = 0.0\nsamples = 3\nvalue = [3, 0]", fillcolor="#e58139ff"] ;
412 -> 414 ;
415 [label="WEEKDAY_APPR_PROCESS_START_SUNDAY <= 0.5\ngini = 0.351\nsamples = 22\nvalue = [17, 5]", fillcolor="#e58139b4"] ;
399 -> 415 ;
416 [label="FLAG_DOCUMENT_16_N <= 0.5\ngini = 0.308\nsamples = 21\nvalue = [17, 4]", fillcolor="#e58139c3"] ;
415 -> 416 ;
417 [label="gini = 0.0\nsamples = 1\nvalue = [0, 1]", fillcolor="#399de5ff"] ;
416 -> 417 ;
418 [label="NAME_TYPE_SUITE_Spouse, partner <= 0.5\ngini = 0.255\nsamples = 20\nvalue = [17, 3]", fillcolor="#e58139d2"] ;
416 -> 418 ;
419 [label="gini = 0.188\nsamples = 19\nvalue = [17, 2]", fillcolor="#e58139e1"] ;
418 -> 419 ;
420 [label="gini = 0.0\nsamples = 1\nvalue = [0, 1]", fillcolor="#399de5ff"] ;
418 -> 420 ;
421 [label="gini = 0.0\nsamples = 1\nvalue = [0, 1]", fillcolor="#399de5ff"] ;
415 -> 421 ;
422 [label="gini = 0.0\nsamples = 1\nvalue = [0, 1]", fillcolor="#399de5ff"] ;
398 -> 422 ;
423 [label="REG_CITY_NOT_LIVE_CITY_Y <= 0.5\ngini = 0.16\nsamples = 9652\nvalue = [8805, 847]", fillcolor="#e58139e6"] ;
261 -> 423 ;
424 [label="FLAG_DOCUMENT_3_N <= 0.5\ngini = 0.151\nsamples = 8548\nvalue = [7847, 701]", fillcolor="#e58139e8"] ;
423 -> 424 ;
425 [label="FLAG_WORK_PHONE_Y <= 0.5\ngini = 0.16\nsamples = 6866\nvalue = [6263, 603]", fillcolor="#e58139e6"] ;
424 -> 425 ;
426 [label="NAME_HOUSING_TYPE_House / apartment <= 0.5\ngini = 0.151\nsamples = 5595\nvalue = [5134, 461]", fillcolor="#e58139e8"] ;
425 -> 426 ;
427 [label="ORGANIZATION_TYPE_Advertising <= 0.5\ngini = 0.2\nsamples = 595\nvalue = [528, 67]", fillcolor="#e58139df"] ;
426 -> 427 ;
428 [label="ORGANIZATION_TYPE_Business Entity Type 2 <= 0.5\ngini = 0.198\nsamples = 594\nvalue = [528, 66]", fillcolor="#e58139df"] ;
427 -> 428 ;
429 [label="REG_CITY_NOT_WORK_CITY_Y <= 0.5\ngini = 0.192\nsamples = 586\nvalue = [523, 63]", fillcolor="#e58139e0"] ;
428 -> 429 ;
430 [label="gini = 0.212\nsamples = 489\nvalue = [430, 59]", fillcolor="#e58139dc"] ;
429 -> 430 ;
431 [label="gini = 0.079\nsamples = 97\nvalue = [93, 4]", fillcolor="#e58139f4"] ;
429 -> 431 ;
432 [label="WEEKDAY_APPR_PROCESS_START_MONDAY <= 0.5\ngini = 0.469\nsamples = 8\nvalue = [5, 3]", fillcolor="#e5813966"] ;
428 -> 432 ;
433 [label="gini = 0.48\nsamples = 5\nvalue = [2, 3]", fillcolor="#399de555"] ;
432 -> 433 ;
434 [label="gini = 0.0\nsamples = 3\nvalue = [3, 0]", fillcolor="#e58139ff"] ;
432 -> 434 ;
435 [label="gini = 0.0\nsamples = 1\nvalue = [0, 1]", fillcolor="#399de5ff"] ;
427 -> 435 ;
436 [label="NAME_INCOME_TYPE_Commercial associate <= 0.5\ngini = 0.145\nsamples = 5000\nvalue = [4606, 394]", fillcolor="#e58139e9"] ;
426 -> 436 ;
437 [label="REG_CITY_NOT_WORK_CITY_N <= 0.5\ngini = 0.264\nsamples = 64\nvalue = [54, 10]", fillcolor="#e58139d0"] ;
436 -> 437 ;
438 [label="FLAG_OWN_CAR_N <= 0.5\ngini = 0.496\nsamples = 11\nvalue = [6, 5]", fillcolor="#e581392a"] ;
437 -> 438 ;
439 [label="gini = 0.32\nsamples = 5\nvalue = [1, 4]", fillcolor="#399de5bf"] ;
438 -> 439 ;
440 [label="gini = 0.278\nsamples = 6\nvalue = [5, 1]", fillcolor="#e58139cc"] ;
438 -> 440 ;
441 [label="WEEKDAY_APPR_PROCESS_START_FRIDAY <= 0.5\ngini = 0.171\nsamples = 53\nvalue = [48, 5]", fillcolor="#e58139e4"] ;
437 -> 441 ;
442 [label="gini = 0.083\nsamples = 46\nvalue = [44, 2]", fillcolor="#e58139f3"] ;
441 -> 442 ;
443 [label="gini = 0.49\nsamples = 7\nvalue = [4, 3]", fillcolor="#e5813940"] ;
441 -> 443 ;
444 [label="FLAG_OWN_CAR_Y <= 0.5\ngini = 0.143\nsamples = 4936\nvalue = [4552, 384]", fillcolor="#e58139e9"] ;
436 -> 444 ;
445 [label="LIVE_CITY_NOT_WORK_CITY_N <= 0.5\ngini = 0.152\nsamples = 3838\nvalue = [3519, 319]", fillcolor="#e58139e8"] ;
444 -> 445 ;
446 [label="gini = 0.195\nsamples = 567\nvalue = [505, 62]", fillcolor="#e58139e0"] ;
445 -> 446 ;
447 [label="gini = 0.145\nsamples = 3271\nvalue = [3014, 257]", fillcolor="#e58139e9"] ;
445 -> 447 ;
448 [label="ORGANIZATION_TYPE_Insurance <= 0.5\ngini = 0.111\nsamples = 1098\nvalue = [1033, 65]", fillcolor="#e58139ef"] ;
444 -> 448 ;
449 [label="gini = 0.11\nsamples = 1096\nvalue = [1032, 64]", fillcolor="#e58139ef"] ;
448 -> 449 ;
450 [label="gini = 0.5\nsamples = 2\nvalue = [1, 1]", fillcolor="#e5813900"] ;
448 -> 450 ;
451 [label="NAME_CONTRACT_TYPE_Cash loans <= 0.5\ngini = 0.198\nsamples = 1271\nvalue = [1129, 142]", fillcolor="#e58139df"] ;
425 -> 451 ;
452 [label="WEEKDAY_APPR_PROCESS_START_THURSDAY <= 0.5\ngini = 0.48\nsamples = 10\nvalue = [6, 4]", fillcolor="#e5813955"] ;
451 -> 452 ;
453 [label="NAME_FAMILY_STATUS_Single / not married <= 0.5\ngini = 0.49\nsamples = 7\nvalue = [3, 4]", fillcolor="#399de540"] ;
452 -> 453 ;
454 [label="NAME_FAMILY_STATUS_Married <= 0.5\ngini = 0.48\nsamples = 5\nvalue = [3, 2]", fillcolor="#e5813955"] ;
453 -> 454 ;
455 [label="gini = 0.0\nsamples = 2\nvalue = [2, 0]", fillcolor="#e58139ff"] ;
454 -> 455 ;
456 [label="gini = 0.444\nsamples = 3\nvalue = [1, 2]", fillcolor="#399de57f"] ;
454 -> 456 ;
457 [label="gini = 0.0\nsamples = 2\nvalue = [0, 2]", fillcolor="#399de5ff"] ;
453 -> 457 ;
458 [label="gini = 0.0\nsamples = 3\nvalue = [3, 0]", fillcolor="#e58139ff"] ;
452 -> 458 ;
459 [label="ORGANIZATION_TYPE_Security Ministries <= 0.5\ngini = 0.195\nsamples = 1261\nvalue = [1123, 138]", fillcolor="#e58139e0"] ;
451 -> 459 ;
460 [label="FLAG_PHONE_Y <= 0.5\ngini = 0.194\nsamples = 1260\nvalue = [1123, 137]", fillcolor="#e58139e0"] ;
459 -> 460 ;
461 [label="ORGANIZATION_TYPE_Agriculture <= 0.5\ngini = 0.234\nsamples = 562\nvalue = [486, 76]", fillcolor="#e58139d7"] ;
460 -> 461 ;
462 [label="gini = 0.232\nsamples = 561\nvalue = [486, 75]", fillcolor="#e58139d8"] ;
461 -> 462 ;
463 [label="gini = 0.0\nsamples = 1\nvalue = [0, 1]", fillcolor="#399de5ff"] ;
461 -> 463 ;
464 [label="NAME_EDUCATION_TYPE_Lower secondary <= 0.5\ngini = 0.16\nsamples = 698\nvalue = [637, 61]", fillcolor="#e58139e7"] ;
460 -> 464 ;
465 [label="gini = 0.154\nsamples = 691\nvalue = [633, 58]", fillcolor="#e58139e8"] ;
464 -> 465 ;
466 [label="gini = 0.49\nsamples = 7\nvalue = [4, 3]", fillcolor="#e5813940"] ;
464 -> 466 ;
467 [label="gini = 0.0\nsamples = 1\nvalue = [0, 1]", fillcolor="#399de5ff"] ;
459 -> 467 ;
468 [label="ORGANIZATION_TYPE_Restaurant <= 0.5\ngini = 0.11\nsamples = 1682\nvalue = [1584, 98]", fillcolor="#e58139ef"] ;
424 -> 468 ;
469 [label="ORGANIZATION_TYPE_Postal <= 0.5\ngini = 0.108\nsamples = 1680\nvalue = [1584, 96]", fillcolor="#e58139f0"] ;
468 -> 469 ;
470 [label="NAME_FAMILY_STATUS_Civil marriage <= 0.5\ngini = 0.107\nsamples = 1679\nvalue = [1584, 95]", fillcolor="#e58139f0"] ;
469 -> 470 ;
471 [label="ORGANIZATION_TYPE_Industry: type 3 <= 0.5\ngini = 0.096\nsamples = 1463\nvalue = [1389, 74]", fillcolor="#e58139f1"] ;
470 -> 471 ;
472 [label="NAME_EDUCATION_TYPE_Higher education <= 0.5\ngini = 0.093\nsamples = 1450\nvalue = [1379, 71]", fillcolor="#e58139f2"] ;
471 -> 472 ;
473 [label="gini = 0.108\nsamples = 1066\nvalue = [1005, 61]", fillcolor="#e58139f0"] ;
472 -> 473 ;
474 [label="gini = 0.051\nsamples = 384\nvalue = [374, 10]", fillcolor="#e58139f8"] ;
472 -> 474 ;
475 [label="NAME_HOUSING_TYPE_With parents <= 0.5\ngini = 0.355\nsamples = 13\nvalue = [10, 3]", fillcolor="#e58139b3"] ;
471 -> 475 ;
476 [label="gini = 0.0\nsamples = 9\nvalue = [9, 0]", fillcolor="#e58139ff"] ;
475 -> 476 ;
477 [label="gini = 0.375\nsamples = 4\nvalue = [1, 3]", fillcolor="#399de5aa"] ;
475 -> 477 ;
478 [label="ORGANIZATION_TYPE_Government <= 0.5\ngini = 0.176\nsamples = 216\nvalue = [195, 21]", fillcolor="#e58139e4"] ;
470 -> 478 ;
479 [label="WEEKDAY_APPR_PROCESS_START_THURSDAY <= 0.5\ngini = 0.169\nsamples = 215\nvalue = [195, 20]", fillcolor="#e58139e5"] ;
478 -> 479 ;
480 [label="gini = 0.138\nsamples = 188\nvalue = [174, 14]", fillcolor="#e58139ea"] ;
479 -> 480 ;
481 [label="gini = 0.346\nsamples = 27\nvalue = [21, 6]", fillcolor="#e58139b6"] ;
479 -> 481 ;
482 [label="gini = 0.0\nsamples = 1\nvalue = [0, 1]", fillcolor="#399de5ff"] ;
478 -> 482 ;
483 [label="gini = 0.0\nsamples = 1\nvalue = [0, 1]", fillcolor="#399de5ff"] ;
469 -> 483 ;
484 [label="gini = 0.0\nsamples = 2\nvalue = [0, 2]", fillcolor="#399de5ff"] ;
468 -> 484 ;
485 [label="ORGANIZATION_TYPE_Insurance <= 0.5\ngini = 0.23\nsamples = 1104\nvalue = [958, 146]", fillcolor="#e58139d8"] ;
423 -> 485 ;
486 [label="REG_REGION_NOT_LIVE_REGION_Y <= 0.5\ngini = 0.227\nsamples = 1102\nvalue = [958, 144]", fillcolor="#e58139d9"] ;
485 -> 486 ;
487 [label="REG_CITY_NOT_WORK_CITY_Y <= 0.5\ngini = 0.251\nsamples = 891\nvalue = [760, 131]", fillcolor="#e58139d3"] ;
486 -> 487 ;
488 [label="FLAG_WORK_PHONE_N <= 0.5\ngini = 0.045\nsamples = 43\nvalue = [42, 1]", fillcolor="#e58139f9"] ;
487 -> 488 ;
489 [label="NAME_EDUCATION_TYPE_Higher education <= 0.5\ngini = 0.219\nsamples = 8\nvalue = [7, 1]", fillcolor="#e58139db"] ;
488 -> 489 ;
490 [label="gini = 0.0\nsamples = 6\nvalue = [6, 0]", fillcolor="#e58139ff"] ;
489 -> 490 ;
491 [label="WEEKDAY_APPR_PROCESS_START_WEDNESDAY <= 0.5\ngini = 0.5\nsamples = 2\nvalue = [1, 1]", fillcolor="#e5813900"] ;
489 -> 491 ;
492 [label="gini = 0.0\nsamples = 1\nvalue = [0, 1]", fillcolor="#399de5ff"] ;
491 -> 492 ;
493 [label="gini = 0.0\nsamples = 1\nvalue = [1, 0]", fillcolor="#e58139ff"] ;
491 -> 493 ;
494 [label="gini = 0.0\nsamples = 35\nvalue = [35, 0]", fillcolor="#e58139ff"] ;
488 -> 494 ;
495 [label="REG_REGION_NOT_WORK_REGION_N <= 0.5\ngini = 0.26\nsamples = 848\nvalue = [718, 130]", fillcolor="#e58139d1"] ;
487 -> 495 ;
496 [label="FLAG_WORK_PHONE_N <= 0.5\ngini = 0.5\nsamples = 6\nvalue = [3, 3]", fillcolor="#e5813900"] ;
495 -> 496 ;
497 [label="FLAG_DOCUMENT_3_Y <= 0.5\ngini = 0.375\nsamples = 4\nvalue = [1, 3]", fillcolor="#399de5aa"] ;
496 -> 497 ;
498 [label="gini = 0.0\nsamples = 1\nvalue = [1, 0]", fillcolor="#e58139ff"] ;
497 -> 498 ;
499 [label="gini = 0.0\nsamples = 3\nvalue = [0, 3]", fillcolor="#399de5ff"] ;
497 -> 499 ;
500 [label="gini = 0.0\nsamples = 2\nvalue = [2, 0]", fillcolor="#e58139ff"] ;
496 -> 500 ;
501 [label="FLAG_DOCUMENT_3_Y <= 0.5\ngini = 0.256\nsamples = 842\nvalue = [715, 127]", fillcolor="#e58139d2"] ;
495 -> 501 ;
502 [label="NAME_TYPE_SUITE_Children <= 0.5\ngini = 0.187\nsamples = 201\nvalue = [180, 21]", fillcolor="#e58139e1"] ;
501 -> 502 ;
503 [label="gini = 0.167\nsamples = 196\nvalue = [178, 18]", fillcolor="#e58139e5"] ;
502 -> 503 ;
504 [label="gini = 0.48\nsamples = 5\nvalue = [2, 3]", fillcolor="#399de555"] ;
502 -> 504 ;
505 [label="NAME_EDUCATION_TYPE_Academic degree <= 0.5\ngini = 0.276\nsamples = 641\nvalue = [535, 106]", fillcolor="#e58139cc"] ;
501 -> 505 ;
506 [label="gini = 0.274\nsamples = 640\nvalue = [535, 105]", fillcolor="#e58139cd"] ;
505 -> 506 ;
507 [label="gini = 0.0\nsamples = 1\nvalue = [0, 1]", fillcolor="#399de5ff"] ;
505 -> 507 ;
508 [label="ORGANIZATION_TYPE_Self-employed <= 0.5\ngini = 0.116\nsamples = 211\nvalue = [198, 13]", fillcolor="#e58139ee"] ;
486 -> 508 ;
509 [label="WEEKDAY_APPR_PROCESS_START_THURSDAY <= 0.5\ngini = 0.088\nsamples = 174\nvalue = [166, 8]", fillcolor="#e58139f3"] ;
508 -> 509 ;
510 [label="NAME_FAMILY_STATUS_Married <= 0.5\ngini = 0.042\nsamples = 139\nvalue = [136, 3]", fillcolor="#e58139f9"] ;
509 -> 510 ;
511 [label="gini = 0.0\nsamples = 85\nvalue = [85, 0]", fillcolor="#e58139ff"] ;
510 -> 511 ;
512 [label="WEEKDAY_APPR_PROCESS_START_FRIDAY <= 0.5\ngini = 0.105\nsamples = 54\nvalue = [51, 3]", fillcolor="#e58139f0"] ;
510 -> 512 ;
513 [label="gini = 0.054\nsamples = 36\nvalue = [35, 1]", fillcolor="#e58139f8"] ;
512 -> 513 ;
514 [label="gini = 0.198\nsamples = 18\nvalue = [16, 2]", fillcolor="#e58139df"] ;
512 -> 514 ;
515 [label="ORGANIZATION_TYPE_Other <= 0.5\ngini = 0.245\nsamples = 35\nvalue = [30, 5]", fillcolor="#e58139d4"] ;
509 -> 515 ;
516 [label="NAME_FAMILY_STATUS_Civil marriage <= 0.5\ngini = 0.208\nsamples = 34\nvalue = [30, 4]", fillcolor="#e58139dd"] ;
515 -> 516 ;
517 [label="gini = 0.074\nsamples = 26\nvalue = [25, 1]", fillcolor="#e58139f5"] ;
516 -> 517 ;
518 [label="gini = 0.469\nsamples = 8\nvalue = [5, 3]", fillcolor="#e5813966"] ;
516 -> 518 ;
519 [label="gini = 0.0\nsamples = 1\nvalue = [0, 1]", fillcolor="#399de5ff"] ;
515 -> 519 ;
520 [label="WEEKDAY_APPR_PROCESS_START_FRIDAY <= 0.5\ngini = 0.234\nsamples = 37\nvalue = [32, 5]", fillcolor="#e58139d7"] ;
508 -> 520 ;
521 [label="NAME_FAMILY_STATUS_Single / not married <= 0.5\ngini = 0.17\nsamples = 32\nvalue = [29, 3]", fillcolor="#e58139e5"] ;
520 -> 521 ;
522 [label="NAME_HOUSING_TYPE_With parents <= 0.5\ngini = 0.074\nsamples = 26\nvalue = [25, 1]", fillcolor="#e58139f5"] ;
521 -> 522 ;
523 [label="gini = 0.0\nsamples = 24\nvalue = [24, 0]", fillcolor="#e58139ff"] ;
522 -> 523 ;
524 [label="gini = 0.5\nsamples = 2\nvalue = [1, 1]", fillcolor="#e5813900"] ;
522 -> 524 ;
525 [label="WEEKDAY_APPR_PROCESS_START_MONDAY <= 0.5\ngini = 0.444\nsamples = 6\nvalue = [4, 2]", fillcolor="#e581397f"] ;
521 -> 525 ;
526 [label="gini = 0.444\nsamples = 3\nvalue = [1, 2]", fillcolor="#399de57f"] ;
525 -> 526 ;
527 [label="gini = 0.0\nsamples = 3\nvalue = [3, 0]", fillcolor="#e58139ff"] ;
525 -> 527 ;
528 [label="NAME_FAMILY_STATUS_Married <= 0.5\ngini = 0.48\nsamples = 5\nvalue = [3, 2]", fillcolor="#e5813955"] ;
520 -> 528 ;
529 [label="gini = 0.0\nsamples = 2\nvalue = [2, 0]", fillcolor="#e58139ff"] ;
528 -> 529 ;
530 [label="FLAG_DOCUMENT_3_Y <= 0.5\ngini = 0.444\nsamples = 3\nvalue = [1, 2]", fillcolor="#399de57f"] ;
528 -> 530 ;
531 [label="gini = 0.0\nsamples = 1\nvalue = [1, 0]", fillcolor="#e58139ff"] ;
530 -> 531 ;
532 [label="gini = 0.0\nsamples = 2\nvalue = [0, 2]", fillcolor="#399de5ff"] ;
530 -> 532 ;
533 [label="gini = 0.0\nsamples = 2\nvalue = [0, 2]", fillcolor="#399de5ff"] ;
485 -> 533 ;
534 [label="NAME_EDUCATION_TYPE_Higher education <= 0.5\ngini = 0.173\nsamples = 158774\nvalue = [143550, 15224]", fillcolor="#e58139e4"] ;
0 -> 534 [labeldistance=2.5, labelangle=-45, headlabel="False"] ;
535 [label="CODE_GENDER_M <= 0.5\ngini = 0.188\nsamples = 125012\nvalue = [111870, 13142]", fillcolor="#e58139e1"] ;
534 -> 535 ;
536 [label="REG_CITY_NOT_LIVE_CITY_Y <= 0.5\ngini = 0.167\nsamples = 74486\nvalue = [67630, 6856]", fillcolor="#e58139e5"] ;
535 -> 536 ;
537 [label="FLAG_DOCUMENT_3_Y <= 0.5\ngini = 0.161\nsamples = 68693\nvalue = [62639, 6054]", fillcolor="#e58139e6"] ;
536 -> 537 ;
538 [label="NAME_HOUSING_TYPE_Rented apartment <= 0.5\ngini = 0.131\nsamples = 10596\nvalue = [9852, 744]", fillcolor="#e58139ec"] ;
537 -> 538 ;
539 [label="NAME_FAMILY_STATUS_Widow <= 0.5\ngini = 0.129\nsamples = 10452\nvalue = [9730, 722]", fillcolor="#e58139ec"] ;
538 -> 539 ;
540 [label="NAME_TYPE_SUITE_Other_B <= 0.5\ngini = 0.132\nsamples = 9957\nvalue = [9249, 708]", fillcolor="#e58139eb"] ;
539 -> 540 ;
541 [label="FLAG_DOCUMENT_5_N <= 0.5\ngini = 0.131\nsamples = 9888\nvalue = [9193, 695]", fillcolor="#e58139ec"] ;
540 -> 541 ;
542 [label="OCCUPATION_TYPE_Cooking staff <= 0.5\ngini = 0.165\nsamples = 1044\nvalue = [949, 95]", fillcolor="#e58139e5"] ;
541 -> 542 ;
543 [label="gini = 0.156\nsamples = 1006\nvalue = [920, 86]", fillcolor="#e58139e7"] ;
542 -> 543 ;
544 [label="gini = 0.361\nsamples = 38\nvalue = [29, 9]", fillcolor="#e58139b0"] ;
542 -> 544 ;
545 [label="ORGANIZATION_TYPE_Agriculture <= 0.5\ngini = 0.126\nsamples = 8844\nvalue = [8244, 600]", fillcolor="#e58139ec"] ;
541 -> 545 ;
546 [label="gini = 0.125\nsamples = 8755\nvalue = [8168, 587]", fillcolor="#e58139ed"] ;
545 -> 546 ;
547 [label="gini = 0.249\nsamples = 89\nvalue = [76, 13]", fillcolor="#e58139d3"] ;
545 -> 547 ;
548 [label="ORGANIZATION_TYPE_Agriculture <= 0.5\ngini = 0.306\nsamples = 69\nvalue = [56, 13]", fillcolor="#e58139c4"] ;
540 -> 548 ;
549 [label="FLAG_WORK_PHONE_Y <= 0.5\ngini = 0.274\nsamples = 67\nvalue = [56, 11]", fillcolor="#e58139cd"] ;
548 -> 549 ;
550 [label="gini = 0.177\nsamples = 51\nvalue = [46, 5]", fillcolor="#e58139e3"] ;
549 -> 550 ;
551 [label="gini = 0.469\nsamples = 16\nvalue = [10, 6]", fillcolor="#e5813966"] ;
549 -> 551 ;
552 [label="gini = 0.0\nsamples = 2\nvalue = [0, 2]", fillcolor="#399de5ff"] ;
548 -> 552 ;
553 [label="FLAG_DOCUMENT_2_N <= 0.5\ngini = 0.055\nsamples = 495\nvalue = [481, 14]", fillcolor="#e58139f8"] ;
539 -> 553 ;
554 [label="OCCUPATION_TYPE_Sales staff <= 0.5\ngini = 0.5\nsamples = 2\nvalue = [1, 1]", fillcolor="#e5813900"] ;
553 -> 554 ;
555 [label="gini = 0.0\nsamples = 1\nvalue = [0, 1]", fillcolor="#399de5ff"] ;
554 -> 555 ;
556 [label="gini = 0.0\nsamples = 1\nvalue = [1, 0]", fillcolor="#e58139ff"] ;
554 -> 556 ;
557 [label="ORGANIZATION_TYPE_Security <= 0.5\ngini = 0.051\nsamples = 493\nvalue = [480, 13]", fillcolor="#e58139f8"] ;
553 -> 557 ;
558 [label="ORGANIZATION_TYPE_Postal <= 0.5\ngini = 0.048\nsamples = 491\nvalue = [479, 12]", fillcolor="#e58139f9"] ;
557 -> 558 ;
559 [label="gini = 0.044\nsamples = 488\nvalue = [477, 11]", fillcolor="#e58139f9"] ;
558 -> 559 ;
560 [label="gini = 0.444\nsamples = 3\nvalue = [2, 1]", fillcolor="#e581397f"] ;
558 -> 560 ;
561 [label="LIVE_CITY_NOT_WORK_CITY_N <= 0.5\ngini = 0.5\nsamples = 2\nvalue = [1, 1]", fillcolor="#e5813900"] ;
557 -> 561 ;
562 [label="gini = 0.0\nsamples = 1\nvalue = [1, 0]", fillcolor="#e58139ff"] ;
561 -> 562 ;
563 [label="gini = 0.0\nsamples = 1\nvalue = [0, 1]", fillcolor="#399de5ff"] ;
561 -> 563 ;
564 [label="WEEKDAY_APPR_PROCESS_START_SATURDAY <= 0.5\ngini = 0.259\nsamples = 144\nvalue = [122, 22]", fillcolor="#e58139d1"] ;
538 -> 564 ;
565 [label="FLAG_DOCUMENT_6_Y <= 0.5\ngini = 0.226\nsamples = 131\nvalue = [114, 17]", fillcolor="#e58139d9"] ;
564 -> 565 ;
566 [label="ORGANIZATION_TYPE_Hotel <= 0.5\ngini = 0.208\nsamples = 127\nvalue = [112, 15]", fillcolor="#e58139dd"] ;
565 -> 566 ;
567 [label="OCCUPATION_TYPE_Sales staff <= 0.5\ngini = 0.198\nsamples = 126\nvalue = [112, 14]", fillcolor="#e58139df"] ;
566 -> 567 ;
568 [label="gini = 0.141\nsamples = 92\nvalue = [85, 7]", fillcolor="#e58139ea"] ;
567 -> 568 ;
569 [label="gini = 0.327\nsamples = 34\nvalue = [27, 7]", fillcolor="#e58139bd"] ;
567 -> 569 ;
570 [label="gini = 0.0\nsamples = 1\nvalue = [0, 1]", fillcolor="#399de5ff"] ;
566 -> 570 ;
571 [label="WEEKDAY_APPR_PROCESS_START_TUESDAY <= 0.5\ngini = 0.5\nsamples = 4\nvalue = [2, 2]", fillcolor="#e5813900"] ;
565 -> 571 ;
572 [label="gini = 0.0\nsamples = 2\nvalue = [2, 0]", fillcolor="#e58139ff"] ;
571 -> 572 ;
573 [label="gini = 0.0\nsamples = 2\nvalue = [0, 2]", fillcolor="#399de5ff"] ;
571 -> 573 ;
574 [label="ORGANIZATION_TYPE_Business Entity Type 3 <= 0.5\ngini = 0.473\nsamples = 13\nvalue = [8, 5]", fillcolor="#e5813960"] ;
564 -> 574 ;
575 [label="FLAG_OWN_REALTY_Y <= 0.5\ngini = 0.397\nsamples = 11\nvalue = [8, 3]", fillcolor="#e581399f"] ;
574 -> 575 ;
576 [label="NAME_TYPE_SUITE_Unaccompanied <= 0.5\ngini = 0.5\nsamples = 6\nvalue = [3, 3]", fillcolor="#e5813900"] ;
575 -> 576 ;
577 [label="gini = 0.0\nsamples = 2\nvalue = [2, 0]", fillcolor="#e58139ff"] ;
576 -> 577 ;
578 [label="gini = 0.375\nsamples = 4\nvalue = [1, 3]", fillcolor="#399de5aa"] ;
576 -> 578 ;
579 [label="gini = 0.0\nsamples = 5\nvalue = [5, 0]", fillcolor="#e58139ff"] ;
575 -> 579 ;
580 [label="gini = 0.0\nsamples = 2\nvalue = [0, 2]", fillcolor="#399de5ff"] ;
574 -> 580 ;
581 [label="FLAG_OWN_CAR_Y <= 0.5\ngini = 0.166\nsamples = 58097\nvalue = [52787, 5310]", fillcolor="#e58139e5"] ;
537 -> 581 ;
582 [label="NAME_FAMILY_STATUS_Widow <= 0.5\ngini = 0.173\nsamples = 45880\nvalue = [41502, 4378]", fillcolor="#e58139e4"] ;
581 -> 582 ;
583 [label="NAME_HOUSING_TYPE_With parents <= 0.5\ngini = 0.176\nsamples = 43391\nvalue = [39162, 4229]", fillcolor="#e58139e3"] ;
582 -> 583 ;
584 [label="FLAG_PHONE_N <= 0.5\ngini = 0.173\nsamples = 41448\nvalue = [37481, 3967]", fillcolor="#e58139e4"] ;
583 -> 584 ;
585 [label="ORGANIZATION_TYPE_Transport: type 3 <= 0.5\ngini = 0.154\nsamples = 11679\nvalue = [10696, 983]", fillcolor="#e58139e8"] ;
584 -> 585 ;
586 [label="gini = 0.153\nsamples = 11662\nvalue = [10686, 976]", fillcolor="#e58139e8"] ;
585 -> 586 ;
587 [label="gini = 0.484\nsamples = 17\nvalue = [10, 7]", fillcolor="#e581394d"] ;
585 -> 587 ;
588 [label="FLAG_WORK_PHONE_Y <= 0.5\ngini = 0.18\nsamples = 29769\nvalue = [26785, 2984]", fillcolor="#e58139e3"] ;
584 -> 588 ;
589 [label="gini = 0.172\nsamples = 24343\nvalue = [22036, 2307]", fillcolor="#e58139e4"] ;
588 -> 589 ;
590 [label="gini = 0.218\nsamples = 5426\nvalue = [4749, 677]", fillcolor="#e58139db"] ;
588 -> 590 ;
591 [label="ORGANIZATION_TYPE_Agriculture <= 0.5\ngini = 0.233\nsamples = 1943\nvalue = [1681, 262]", fillcolor="#e58139d7"] ;
583 -> 591 ;
592 [label="ORGANIZATION_TYPE_Trade: type 3 <= 0.5\ngini = 0.231\nsamples = 1926\nvalue = [1670, 256]", fillcolor="#e58139d8"] ;
591 -> 592 ;
593 [label="gini = 0.226\nsamples = 1884\nvalue = [1639, 245]", fillcolor="#e58139d9"] ;
592 -> 593 ;
594 [label="gini = 0.387\nsamples = 42\nvalue = [31, 11]", fillcolor="#e58139a5"] ;
592 -> 594 ;
595 [label="NAME_FAMILY_STATUS_Civil marriage <= 0.5\ngini = 0.457\nsamples = 17\nvalue = [11, 6]", fillcolor="#e5813974"] ;
591 -> 595 ;
596 [label="gini = 0.298\nsamples = 11\nvalue = [9, 2]", fillcolor="#e58139c6"] ;
595 -> 596 ;
597 [label="gini = 0.444\nsamples = 6\nvalue = [2, 4]", fillcolor="#399de57f"] ;
595 -> 597 ;
598 [label="ORGANIZATION_TYPE_Business Entity Type 3 <= 0.5\ngini = 0.113\nsamples = 2489\nvalue = [2340, 149]", fillcolor="#e58139ef"] ;
582 -> 598 ;
599 [label="OCCUPATION_TYPE_Sales staff <= 0.5\ngini = 0.098\nsamples = 1926\nvalue = [1827, 99]", fillcolor="#e58139f1"] ;
598 -> 599 ;
600 [label="NAME_HOUSING_TYPE_With parents <= 0.5\ngini = 0.08\nsamples = 1619\nvalue = [1551, 68]", fillcolor="#e58139f4"] ;
599 -> 600 ;
601 [label="gini = 0.078\nsamples = 1598\nvalue = [1533, 65]", fillcolor="#e58139f4"] ;
600 -> 601 ;
602 [label="gini = 0.245\nsamples = 21\nvalue = [18, 3]", fillcolor="#e58139d4"] ;
600 -> 602 ;
603 [label="WEEKDAY_APPR_PROCESS_START_TUESDAY <= 0.5\ngini = 0.182\nsamples = 307\nvalue = [276, 31]", fillcolor="#e58139e2"] ;
599 -> 603 ;
604 [label="gini = 0.15\nsamples = 245\nvalue = [225, 20]", fillcolor="#e58139e8"] ;
603 -> 604 ;
605 [label="gini = 0.292\nsamples = 62\nvalue = [51, 11]", fillcolor="#e58139c8"] ;
603 -> 605 ;
606 [label="FLAG_EMAIL_Y <= 0.5\ngini = 0.162\nsamples = 563\nvalue = [513, 50]", fillcolor="#e58139e6"] ;
598 -> 606 ;
607 [label="FLAG_PHONE_N <= 0.5\ngini = 0.155\nsamples = 545\nvalue = [499, 46]", fillcolor="#e58139e7"] ;
606 -> 607 ;
608 [label="gini = 0.094\nsamples = 142\nvalue = [135, 7]", fillcolor="#e58139f2"] ;
607 -> 608 ;
609 [label="gini = 0.175\nsamples = 403\nvalue = [364, 39]", fillcolor="#e58139e4"] ;
607 -> 609 ;
610 [label="WEEKDAY_APPR_PROCESS_START_THURSDAY <= 0.5\ngini = 0.346\nsamples = 18\nvalue = [14, 4]", fillcolor="#e58139b6"] ;
606 -> 610 ;
611 [label="gini = 0.231\nsamples = 15\nvalue = [13, 2]", fillcolor="#e58139d8"] ;
610 -> 611 ;
612 [label="gini = 0.444\nsamples = 3\nvalue = [1, 2]", fillcolor="#399de57f"] ;
610 -> 612 ;
613 [label="OCCUPATION_TYPE_Accountants <= 0.5\ngini = 0.141\nsamples = 12217\nvalue = [11285, 932]", fillcolor="#e58139ea"] ;
581 -> 613 ;
614 [label="OCCUPATION_TYPE_Security staff <= 0.5\ngini = 0.143\nsamples = 11708\nvalue = [10799, 909]", fillcolor="#e58139ea"] ;
613 -> 614 ;
615 [label="OCCUPATION_TYPE_Sales staff <= 0.5\ngini = 0.142\nsamples = 11509\nvalue = [10625, 884]", fillcolor="#e58139ea"] ;
614 -> 615 ;
616 [label="NAME_FAMILY_STATUS_Civil marriage <= 0.5\ngini = 0.136\nsamples = 8805\nvalue = [8160, 645]", fillcolor="#e58139eb"] ;
615 -> 616 ;
617 [label="gini = 0.131\nsamples = 7933\nvalue = [7374, 559]", fillcolor="#e58139ec"] ;
616 -> 617 ;
618 [label="gini = 0.178\nsamples = 872\nvalue = [786, 86]", fillcolor="#e58139e3"] ;
616 -> 618 ;
619 [label="ORGANIZATION_TYPE_Transport: type 3 <= 0.5\ngini = 0.161\nsamples = 2704\nvalue = [2465, 239]", fillcolor="#e58139e6"] ;
615 -> 619 ;
620 [label="gini = 0.161\nsamples = 2703\nvalue = [2465, 238]", fillcolor="#e58139e6"] ;
619 -> 620 ;
621 [label="gini = 0.0\nsamples = 1\nvalue = [0, 1]", fillcolor="#399de5ff"] ;
619 -> 621 ;
622 [label="ORGANIZATION_TYPE_University <= 0.5\ngini = 0.22\nsamples = 199\nvalue = [174, 25]", fillcolor="#e58139da"] ;
614 -> 622 ;
623 [label="FLAG_CONT_MOBILE_N <= 0.5\ngini = 0.206\nsamples = 197\nvalue = [174, 23]", fillcolor="#e58139dd"] ;
622 -> 623 ;
624 [label="gini = 0.199\nsamples = 196\nvalue = [174, 22]", fillcolor="#e58139df"] ;
623 -> 624 ;
625 [label="gini = 0.0\nsamples = 1\nvalue = [0, 1]", fillcolor="#399de5ff"] ;
623 -> 625 ;
626 [label="gini = 0.0\nsamples = 2\nvalue = [0, 2]", fillcolor="#399de5ff"] ;
622 -> 626 ;
627 [label="NAME_HOUSING_TYPE_Municipal apartment <= 0.5\ngini = 0.086\nsamples = 509\nvalue = [486, 23]", fillcolor="#e58139f3"] ;
613 -> 627 ;
628 [label="ORGANIZATION_TYPE_Self-employed <= 0.5\ngini = 0.077\nsamples = 496\nvalue = [476, 20]", fillcolor="#e58139f4"] ;
627 -> 628 ;
629 [label="ORGANIZATION_TYPE_Other <= 0.5\ngini = 0.062\nsamples = 374\nvalue = [362, 12]", fillcolor="#e58139f7"] ;
628 -> 629 ;
630 [label="gini = 0.051\nsamples = 341\nvalue = [332, 9]", fillcolor="#e58139f8"] ;
629 -> 630 ;
631 [label="gini = 0.165\nsamples = 33\nvalue = [30, 3]", fillcolor="#e58139e6"] ;
629 -> 631 ;
632 [label="NAME_FAMILY_STATUS_Widow <= 0.5\ngini = 0.123\nsamples = 122\nvalue = [114, 8]", fillcolor="#e58139ed"] ;
628 -> 632 ;
633 [label="gini = 0.112\nsamples = 118\nvalue = [111, 7]", fillcolor="#e58139ef"] ;
632 -> 633 ;
634 [label="gini = 0.375\nsamples = 4\nvalue = [3, 1]", fillcolor="#e58139aa"] ;
632 -> 634 ;
635 [label="FLAG_EMAIL_N <= 0.5\ngini = 0.355\nsamples = 13\nvalue = [10, 3]", fillcolor="#e58139b3"] ;
627 -> 635 ;
636 [label="gini = 0.0\nsamples = 1\nvalue = [0, 1]", fillcolor="#399de5ff"] ;
635 -> 636 ;
637 [label="WEEKDAY_APPR_PROCESS_START_SATURDAY <= 0.5\ngini = 0.278\nsamples = 12\nvalue = [10, 2]", fillcolor="#e58139cc"] ;
635 -> 637 ;
638 [label="gini = 0.165\nsamples = 11\nvalue = [10, 1]", fillcolor="#e58139e6"] ;
637 -> 638 ;
639 [label="gini = 0.0\nsamples = 1\nvalue = [0, 1]", fillcolor="#399de5ff"] ;
637 -> 639 ;
640 [label="FLAG_OWN_CAR_Y <= 0.5\ngini = 0.239\nsamples = 5793\nvalue = [4991, 802]", fillcolor="#e58139d6"] ;
536 -> 640 ;
641 [label="FLAG_DOCUMENT_3_Y <= 0.5\ngini = 0.251\nsamples = 4664\nvalue = [3979, 685]", fillcolor="#e58139d3"] ;
640 -> 641 ;
642 [label="ORGANIZATION_TYPE_Hotel <= 0.5\ngini = 0.19\nsamples = 827\nvalue = [739, 88]", fillcolor="#e58139e1"] ;
641 -> 642 ;
643 [label="OCCUPATION_TYPE_Laborers <= 0.5\ngini = 0.185\nsamples = 824\nvalue = [739, 85]", fillcolor="#e58139e2"] ;
642 -> 643 ;
644 [label="NAME_FAMILY_STATUS_Civil marriage <= 0.5\ngini = 0.155\nsamples = 697\nvalue = [638, 59]", fillcolor="#e58139e7"] ;
643 -> 644 ;
645 [label="WEEKDAY_APPR_PROCESS_START_SATURDAY <= 0.5\ngini = 0.138\nsamples = 588\nvalue = [544, 44]", fillcolor="#e58139ea"] ;
644 -> 645 ;
646 [label="gini = 0.122\nsamples = 521\nvalue = [487, 34]", fillcolor="#e58139ed"] ;
645 -> 646 ;
647 [label="gini = 0.254\nsamples = 67\nvalue = [57, 10]", fillcolor="#e58139d2"] ;
645 -> 647 ;
648 [label="WEEKDAY_APPR_PROCESS_START_FRIDAY <= 0.5\ngini = 0.237\nsamples = 109\nvalue = [94, 15]", fillcolor="#e58139d6"] ;
644 -> 648 ;
649 [label="gini = 0.194\nsamples = 92\nvalue = [82, 10]", fillcolor="#e58139e0"] ;
648 -> 649 ;
650 [label="gini = 0.415\nsamples = 17\nvalue = [12, 5]", fillcolor="#e5813995"] ;
648 -> 650 ;
651 [label="NAME_EDUCATION_TYPE_Lower secondary <= 0.5\ngini = 0.326\nsamples = 127\nvalue = [101, 26]", fillcolor="#e58139bd"] ;
643 -> 651 ;
652 [label="WEEKDAY_APPR_PROCESS_START_FRIDAY <= 0.5\ngini = 0.31\nsamples = 125\nvalue = [101, 24]", fillcolor="#e58139c2"] ;
651 -> 652 ;
653 [label="gini = 0.269\nsamples = 106\nvalue = [89, 17]", fillcolor="#e58139ce"] ;
652 -> 653 ;
654 [label="gini = 0.465\nsamples = 19\nvalue = [12, 7]", fillcolor="#e581396a"] ;
652 -> 654 ;
655 [label="gini = 0.0\nsamples = 2\nvalue = [0, 2]", fillcolor="#399de5ff"] ;
651 -> 655 ;
656 [label="gini = 0.0\nsamples = 3\nvalue = [0, 3]", fillcolor="#399de5ff"] ;
642 -> 656 ;
657 [label="OCCUPATION_TYPE_Security staff <= 0.5\ngini = 0.263\nsamples = 3837\nvalue = [3240, 597]", fillcolor="#e58139d0"] ;
641 -> 657 ;
658 [label="ORGANIZATION_TYPE_Construction <= 0.5\ngini = 0.26\nsamples = 3799\nvalue = [3216, 583]", fillcolor="#e58139d1"] ;
657 -> 658 ;
659 [label="NAME_HOUSING_TYPE_House / apartment <= 0.5\ngini = 0.257\nsamples = 3743\nvalue = [3177, 566]", fillcolor="#e58139d2"] ;
658 -> 659 ;
660 [label="NAME_EDUCATION_TYPE_Incomplete higher <= 0.5\ngini = 0.294\nsamples = 998\nvalue = [819, 179]", fillcolor="#e58139c7"] ;
659 -> 660 ;
661 [label="gini = 0.308\nsamples = 919\nvalue = [744, 175]", fillcolor="#e58139c3"] ;
660 -> 661 ;
662 [label="gini = 0.096\nsamples = 79\nvalue = [75, 4]", fillcolor="#e58139f1"] ;
660 -> 662 ;
663 [label="ORGANIZATION_TYPE_Transport: type 3 <= 0.5\ngini = 0.242\nsamples = 2745\nvalue = [2358, 387]", fillcolor="#e58139d5"] ;
659 -> 663 ;
664 [label="gini = 0.241\nsamples = 2740\nvalue = [2356, 384]", fillcolor="#e58139d5"] ;
663 -> 664 ;
665 [label="gini = 0.48\nsamples = 5\nvalue = [2, 3]", fillcolor="#399de555"] ;
663 -> 665 ;
666 [label="NAME_TYPE_SUITE_Family <= 0.5\ngini = 0.423\nsamples = 56\nvalue = [39, 17]", fillcolor="#e5813990"] ;
658 -> 666 ;
667 [label="WEEKDAY_APPR_PROCESS_START_WEDNESDAY <= 0.5\ngini = 0.462\nsamples = 47\nvalue = [30, 17]", fillcolor="#e581396e"] ;
666 -> 667 ;
668 [label="gini = 0.494\nsamples = 36\nvalue = [20, 16]", fillcolor="#e5813933"] ;
667 -> 668 ;
669 [label="gini = 0.165\nsamples = 11\nvalue = [10, 1]", fillcolor="#e58139e6"] ;
667 -> 669 ;
670 [label="gini = 0.0\nsamples = 9\nvalue = [9, 0]", fillcolor="#e58139ff"] ;
666 -> 670 ;
671 [label="LIVE_CITY_NOT_WORK_CITY_Y <= 0.5\ngini = 0.465\nsamples = 38\nvalue = [24, 14]", fillcolor="#e581396a"] ;
657 -> 671 ;
672 [label="ORGANIZATION_TYPE_Business Entity Type 3 <= 0.5\ngini = 0.365\nsamples = 25\nvalue = [19, 6]", fillcolor="#e58139ae"] ;
671 -> 672 ;
673 [label="ORGANIZATION_TYPE_Kindergarten <= 0.5\ngini = 0.48\nsamples = 15\nvalue = [9, 6]", fillcolor="#e5813955"] ;
672 -> 673 ;
674 [label="gini = 0.459\nsamples = 14\nvalue = [9, 5]", fillcolor="#e5813971"] ;
673 -> 674 ;
675 [label="gini = 0.0\nsamples = 1\nvalue = [0, 1]", fillcolor="#399de5ff"] ;
673 -> 675 ;
676 [label="gini = 0.0\nsamples = 10\nvalue = [10, 0]", fillcolor="#e58139ff"] ;
672 -> 676 ;
677 [label="NAME_FAMILY_STATUS_Widow <= 0.5\ngini = 0.473\nsamples = 13\nvalue = [5, 8]", fillcolor="#399de560"] ;
671 -> 677 ;
678 [label="FLAG_PHONE_Y <= 0.5\ngini = 0.444\nsamples = 12\nvalue = [4, 8]", fillcolor="#399de57f"] ;
677 -> 678 ;
679 [label="gini = 0.245\nsamples = 7\nvalue = [1, 6]", fillcolor="#399de5d4"] ;
678 -> 679 ;
680 [label="gini = 0.48\nsamples = 5\nvalue = [3, 2]", fillcolor="#e5813955"] ;
678 -> 680 ;
681 [label="gini = 0.0\nsamples = 1\nvalue = [1, 0]", fillcolor="#e58139ff"] ;
677 -> 681 ;
682 [label="OCCUPATION_TYPE_Low-skill Laborers <= 0.5\ngini = 0.186\nsamples = 1129\nvalue = [1012, 117]", fillcolor="#e58139e2"] ;
640 -> 682 ;
683 [label="OCCUPATION_TYPE_HR staff <= 0.5\ngini = 0.183\nsamples = 1126\nvalue = [1011, 115]", fillcolor="#e58139e2"] ;
682 -> 683 ;
684 [label="ORGANIZATION_TYPE_Legal Services <= 0.5\ngini = 0.182\nsamples = 1125\nvalue = [1011, 114]", fillcolor="#e58139e2"] ;
683 -> 684 ;
685 [label="NAME_HOUSING_TYPE_Office apartment <= 0.5\ngini = 0.181\nsamples = 1124\nvalue = [1011, 113]", fillcolor="#e58139e2"] ;
684 -> 685 ;
686 [label="WEEKDAY_APPR_PROCESS_START_MONDAY <= 0.5\ngini = 0.177\nsamples = 1111\nvalue = [1002, 109]", fillcolor="#e58139e3"] ;
685 -> 686 ;
687 [label="gini = 0.161\nsamples = 916\nvalue = [835, 81]", fillcolor="#e58139e6"] ;
686 -> 687 ;
688 [label="gini = 0.246\nsamples = 195\nvalue = [167, 28]", fillcolor="#e58139d4"] ;
686 -> 688 ;
689 [label="NAME_FAMILY_STATUS_Civil marriage <= 0.5\ngini = 0.426\nsamples = 13\nvalue = [9, 4]", fillcolor="#e581398e"] ;
685 -> 689 ;
690 [label="gini = 0.298\nsamples = 11\nvalue = [9, 2]", fillcolor="#e58139c6"] ;
689 -> 690 ;
691 [label="gini = 0.0\nsamples = 2\nvalue = [0, 2]", fillcolor="#399de5ff"] ;
689 -> 691 ;
692 [label="gini = 0.0\nsamples = 1\nvalue = [0, 1]", fillcolor="#399de5ff"] ;
684 -> 692 ;
693 [label="gini = 0.0\nsamples = 1\nvalue = [0, 1]", fillcolor="#399de5ff"] ;
683 -> 693 ;
694 [label="NAME_FAMILY_STATUS_Married <= 0.5\ngini = 0.444\nsamples = 3\nvalue = [1, 2]", fillcolor="#399de57f"] ;
682 -> 694 ;
695 [label="gini = 0.0\nsamples = 2\nvalue = [0, 2]", fillcolor="#399de5ff"] ;
694 -> 695 ;
696 [label="gini = 0.0\nsamples = 1\nvalue = [1, 0]", fillcolor="#e58139ff"] ;
694 -> 696 ;
697 [label="FLAG_OWN_CAR_Y <= 0.5\ngini = 0.218\nsamples = 50526\nvalue = [44240, 6286]", fillcolor="#e58139db"] ;
535 -> 697 ;
698 [label="NAME_FAMILY_STATUS_Married <= 0.5\ngini = 0.259\nsamples = 22308\nvalue = [18895, 3413]", fillcolor="#e58139d1"] ;
697 -> 698 ;
699 [label="FLAG_DOCUMENT_3_Y <= 0.5\ngini = 0.296\nsamples = 8684\nvalue = [7115, 1569]", fillcolor="#e58139c7"] ;
698 -> 699 ;
700 [label="FLAG_DOCUMENT_8_N <= 0.5\ngini = 0.216\nsamples = 1931\nvalue = [1693, 238]", fillcolor="#e58139db"] ;
699 -> 700 ;
701 [label="OCCUPATION_TYPE_Cleaning staff <= 0.5\ngini = 0.255\nsamples = 785\nvalue = [667, 118]", fillcolor="#e58139d2"] ;
700 -> 701 ;
702 [label="FLAG_DOCUMENT_15_N <= 0.5\ngini = 0.254\nsamples = 784\nvalue = [667, 117]", fillcolor="#e58139d2"] ;
701 -> 702 ;
703 [label="gini = 0.0\nsamples = 1\nvalue = [0, 1]", fillcolor="#399de5ff"] ;
702 -> 703 ;
704 [label="FLAG_DOCUMENT_21_N <= 0.5\ngini = 0.252\nsamples = 783\nvalue = [667, 116]", fillcolor="#e58139d3"] ;
702 -> 704 ;
705 [label="gini = 0.0\nsamples = 1\nvalue = [0, 1]", fillcolor="#399de5ff"] ;
704 -> 705 ;
706 [label="gini = 0.251\nsamples = 782\nvalue = [667, 115]", fillcolor="#e58139d3"] ;
704 -> 706 ;
707 [label="gini = 0.0\nsamples = 1\nvalue = [0, 1]", fillcolor="#399de5ff"] ;
701 -> 707 ;
708 [label="NAME_TYPE_SUITE_Group of people <= 0.5\ngini = 0.187\nsamples = 1146\nvalue = [1026, 120]", fillcolor="#e58139e1"] ;
700 -> 708 ;
709 [label="FLAG_WORK_PHONE_N <= 0.5\ngini = 0.186\nsamples = 1145\nvalue = [1026, 119]", fillcolor="#e58139e1"] ;
708 -> 709 ;
710 [label="NAME_HOUSING_TYPE_Municipal apartment <= 0.5\ngini = 0.248\nsamples = 297\nvalue = [254, 43]", fillcolor="#e58139d4"] ;
709 -> 710 ;
711 [label="gini = 0.229\nsamples = 288\nvalue = [250, 38]", fillcolor="#e58139d8"] ;
710 -> 711 ;
712 [label="gini = 0.494\nsamples = 9\nvalue = [4, 5]", fillcolor="#399de533"] ;
710 -> 712 ;
713 [label="FLAG_DOCUMENT_5_N <= 0.5\ngini = 0.163\nsamples = 848\nvalue = [772, 76]", fillcolor="#e58139e6"] ;
709 -> 713 ;
714 [label="gini = 0.291\nsamples = 119\nvalue = [98, 21]", fillcolor="#e58139c8"] ;
713 -> 714 ;
715 [label="gini = 0.14\nsamples = 729\nvalue = [674, 55]", fillcolor="#e58139ea"] ;
713 -> 715 ;
716 [label="gini = 0.0\nsamples = 1\nvalue = [0, 1]", fillcolor="#399de5ff"] ;
708 -> 716 ;
717 [label="REG_CITY_NOT_WORK_CITY_Y <= 0.5\ngini = 0.317\nsamples = 6753\nvalue = [5422, 1331]", fillcolor="#e58139c0"] ;
699 -> 717 ;
718 [label="ORGANIZATION_TYPE_Self-employed <= 0.5\ngini = 0.297\nsamples = 4252\nvalue = [3482, 770]", fillcolor="#e58139c7"] ;
717 -> 718 ;
719 [label="ORGANIZATION_TYPE_Construction <= 0.5\ngini = 0.283\nsamples = 3631\nvalue = [3012, 619]", fillcolor="#e58139cb"] ;
718 -> 719 ;
720 [label="ORGANIZATION_TYPE_Business Entity Type 3 <= 0.5\ngini = 0.277\nsamples = 3418\nvalue = [2851, 567]", fillcolor="#e58139cc"] ;
719 -> 720 ;
721 [label="gini = 0.254\nsamples = 2093\nvalue = [1781, 312]", fillcolor="#e58139d2"] ;
720 -> 721 ;
722 [label="gini = 0.311\nsamples = 1325\nvalue = [1070, 255]", fillcolor="#e58139c2"] ;
720 -> 722 ;
723 [label="FLAG_PHONE_Y <= 0.5\ngini = 0.369\nsamples = 213\nvalue = [161, 52]", fillcolor="#e58139ad"] ;
719 -> 723 ;
724 [label="gini = 0.404\nsamples = 171\nvalue = [123, 48]", fillcolor="#e581399b"] ;
723 -> 724 ;
725 [label="gini = 0.172\nsamples = 42\nvalue = [38, 4]", fillcolor="#e58139e4"] ;
723 -> 725 ;
726 [label="OCCUPATION_TYPE_Sales staff <= 0.5\ngini = 0.368\nsamples = 621\nvalue = [470, 151]", fillcolor="#e58139ad"] ;
718 -> 726 ;
727 [label="WEEKDAY_APPR_PROCESS_START_THURSDAY <= 0.5\ngini = 0.386\nsamples = 559\nvalue = [413, 146]", fillcolor="#e58139a5"] ;
726 -> 727 ;
728 [label="gini = 0.405\nsamples = 457\nvalue = [328, 129]", fillcolor="#e581399b"] ;
727 -> 728 ;
729 [label="gini = 0.278\nsamples = 102\nvalue = [85, 17]", fillcolor="#e58139cc"] ;
727 -> 729 ;
730 [label="FLAG_EMAIL_Y <= 0.5\ngini = 0.148\nsamples = 62\nvalue = [57, 5]", fillcolor="#e58139e9"] ;
726 -> 730 ;
731 [label="gini = 0.103\nsamples = 55\nvalue = [52, 3]", fillcolor="#e58139f0"] ;
730 -> 731 ;
732 [label="gini = 0.408\nsamples = 7\nvalue = [5, 2]", fillcolor="#e5813999"] ;
730 -> 732 ;
733 [label="FLAG_EMAIL_N <= 0.5\ngini = 0.348\nsamples = 2501\nvalue = [1940, 561]", fillcolor="#e58139b5"] ;
717 -> 733 ;
734 [label="ORGANIZATION_TYPE_Telecom <= 0.5\ngini = 0.236\nsamples = 146\nvalue = [126, 20]", fillcolor="#e58139d7"] ;
733 -> 734 ;
735 [label="WEEKDAY_APPR_PROCESS_START_TUESDAY <= 0.5\ngini = 0.228\nsamples = 145\nvalue = [126, 19]", fillcolor="#e58139d9"] ;
734 -> 735 ;
736 [label="gini = 0.19\nsamples = 122\nvalue = [109, 13]", fillcolor="#e58139e1"] ;
735 -> 736 ;
737 [label="gini = 0.386\nsamples = 23\nvalue = [17, 6]", fillcolor="#e58139a5"] ;
735 -> 737 ;
738 [label="gini = 0.0\nsamples = 1\nvalue = [0, 1]", fillcolor="#399de5ff"] ;
734 -> 738 ;
739 [label="ORGANIZATION_TYPE_Transport: type 3 <= 0.5\ngini = 0.354\nsamples = 2355\nvalue = [1814, 541]", fillcolor="#e58139b3"] ;
733 -> 739 ;
740 [label="NAME_EDUCATION_TYPE_Incomplete higher <= 0.5\ngini = 0.353\nsamples = 2346\nvalue = [1810, 536]", fillcolor="#e58139b3"] ;
739 -> 740 ;
741 [label="gini = 0.357\nsamples = 2243\nvalue = [1721, 522]", fillcolor="#e58139b2"] ;
740 -> 741 ;
742 [label="gini = 0.235\nsamples = 103\nvalue = [89, 14]", fillcolor="#e58139d7"] ;
740 -> 742 ;
743 [label="WEEKDAY_APPR_PROCESS_START_FRIDAY <= 0.5\ngini = 0.494\nsamples = 9\nvalue = [4, 5]", fillcolor="#399de533"] ;
739 -> 743 ;
744 [label="gini = 0.444\nsamples = 6\nvalue = [4, 2]", fillcolor="#e581397f"] ;
743 -> 744 ;
745 [label="gini = 0.0\nsamples = 3\nvalue = [0, 3]", fillcolor="#399de5ff"] ;
743 -> 745 ;
746 [label="FLAG_DOCUMENT_3_N <= 0.5\ngini = 0.234\nsamples = 13624\nvalue = [11780, 1844]", fillcolor="#e58139d7"] ;
698 -> 746 ;
747 [label="REG_CITY_NOT_WORK_CITY_Y <= 0.5\ngini = 0.246\nsamples = 10886\nvalue = [9319, 1567]", fillcolor="#e58139d4"] ;
746 -> 747 ;
748 [label="ORGANIZATION_TYPE_Realtor <= 0.5\ngini = 0.226\nsamples = 6967\nvalue = [6062, 905]", fillcolor="#e58139d9"] ;
747 -> 748 ;
749 [label="OCCUPATION_TYPE_Low-skill Laborers <= 0.5\ngini = 0.226\nsamples = 6965\nvalue = [6062, 903]", fillcolor="#e58139d9"] ;
748 -> 749 ;
750 [label="FLAG_CONT_MOBILE_Y <= 0.5\ngini = 0.222\nsamples = 6697\nvalue = [5845, 852]", fillcolor="#e58139da"] ;
749 -> 750 ;
751 [label="gini = 0.48\nsamples = 15\nvalue = [9, 6]", fillcolor="#e5813955"] ;
750 -> 751 ;
752 [label="gini = 0.221\nsamples = 6682\nvalue = [5836, 846]", fillcolor="#e58139da"] ;
750 -> 752 ;
753 [label="NAME_TYPE_SUITE_Spouse, partner <= 0.5\ngini = 0.308\nsamples = 268\nvalue = [217, 51]", fillcolor="#e58139c3"] ;
749 -> 753 ;
754 [label="gini = 0.287\nsamples = 248\nvalue = [205, 43]", fillcolor="#e58139ca"] ;
753 -> 754 ;
755 [label="gini = 0.48\nsamples = 20\nvalue = [12, 8]", fillcolor="#e5813955"] ;
753 -> 755 ;
756 [label="gini = 0.0\nsamples = 2\nvalue = [0, 2]", fillcolor="#399de5ff"] ;
748 -> 756 ;
757 [label="LIVE_CITY_NOT_WORK_CITY_Y <= 0.5\ngini = 0.281\nsamples = 3919\nvalue = [3257, 662]", fillcolor="#e58139cb"] ;
747 -> 757 ;
758 [label="NAME_HOUSING_TYPE_Office apartment <= 0.5\ngini = 0.319\nsamples = 717\nvalue = [574, 143]", fillcolor="#e58139bf"] ;
757 -> 758 ;
759 [label="ORGANIZATION_TYPE_Business Entity Type 3 <= 0.5\ngini = 0.314\nsamples = 709\nvalue = [571, 138]", fillcolor="#e58139c1"] ;
758 -> 759 ;
760 [label="gini = 0.352\nsamples = 460\nvalue = [355, 105]", fillcolor="#e58139b4"] ;
759 -> 760 ;
761 [label="gini = 0.23\nsamples = 249\nvalue = [216, 33]", fillcolor="#e58139d8"] ;
759 -> 761 ;
762 [label="WEEKDAY_APPR_PROCESS_START_THURSDAY <= 0.5\ngini = 0.469\nsamples = 8\nvalue = [3, 5]", fillcolor="#399de566"] ;
758 -> 762 ;
763 [label="gini = 0.278\nsamples = 6\nvalue = [1, 5]", fillcolor="#399de5cc"] ;
762 -> 763 ;
764 [label="gini = 0.0\nsamples = 2\nvalue = [2, 0]", fillcolor="#e58139ff"] ;
762 -> 764 ;
765 [label="ORGANIZATION_TYPE_Business Entity Type 3 <= 0.5\ngini = 0.272\nsamples = 3202\nvalue = [2683, 519]", fillcolor="#e58139ce"] ;
757 -> 765 ;
766 [label="OCCUPATION_TYPE_Medicine staff <= 0.5\ngini = 0.253\nsamples = 2175\nvalue = [1852, 323]", fillcolor="#e58139d3"] ;
765 -> 766 ;
767 [label="gini = 0.251\nsamples = 2170\nvalue = [1850, 320]", fillcolor="#e58139d3"] ;
766 -> 767 ;
768 [label="gini = 0.48\nsamples = 5\nvalue = [2, 3]", fillcolor="#399de555"] ;
766 -> 768 ;
769 [label="FLAG_CONT_MOBILE_Y <= 0.5\ngini = 0.309\nsamples = 1027\nvalue = [831, 196]", fillcolor="#e58139c3"] ;
765 -> 769 ;
770 [label="gini = 0.0\nsamples = 1\nvalue = [0, 1]", fillcolor="#399de5ff"] ;
769 -> 770 ;
771 [label="gini = 0.308\nsamples = 1026\nvalue = [831, 195]", fillcolor="#e58139c3"] ;
769 -> 771 ;
772 [label="NAME_HOUSING_TYPE_With parents <= 0.5\ngini = 0.182\nsamples = 2738\nvalue = [2461, 277]", fillcolor="#e58139e2"] ;
746 -> 772 ;
773 [label="NAME_CONTRACT_TYPE_Cash loans <= 0.5\ngini = 0.173\nsamples = 2567\nvalue = [2322, 245]", fillcolor="#e58139e4"] ;
772 -> 773 ;
774 [label="NAME_TYPE_SUITE_Other_B <= 0.5\ngini = 0.128\nsamples = 904\nvalue = [842, 62]", fillcolor="#e58139ec"] ;
773 -> 774 ;
775 [label="OCCUPATION_TYPE_Secretaries <= 0.5\ngini = 0.122\nsamples = 901\nvalue = [842, 59]", fillcolor="#e58139ed"] ;
774 -> 775 ;
776 [label="gini = 0.121\nsamples = 900\nvalue = [842, 58]", fillcolor="#e58139ed"] ;
775 -> 776 ;
777 [label="gini = 0.0\nsamples = 1\nvalue = [0, 1]", fillcolor="#399de5ff"] ;
775 -> 777 ;
778 [label="gini = 0.0\nsamples = 3\nvalue = [0, 3]", fillcolor="#399de5ff"] ;
774 -> 778 ;
779 [label="FLAG_DOCUMENT_5_N <= 0.5\ngini = 0.196\nsamples = 1663\nvalue = [1480, 183]", fillcolor="#e58139df"] ;
773 -> 779 ;
780 [label="ORGANIZATION_TYPE_Government <= 0.5\ngini = 0.282\nsamples = 206\nvalue = [171, 35]", fillcolor="#e58139cb"] ;
779 -> 780 ;
781 [label="gini = 0.267\nsamples = 202\nvalue = [170, 32]", fillcolor="#e58139cf"] ;
780 -> 781 ;
782 [label="gini = 0.375\nsamples = 4\nvalue = [1, 3]", fillcolor="#399de5aa"] ;
780 -> 782 ;
783 [label="FLAG_DOCUMENT_8_N <= 0.5\ngini = 0.183\nsamples = 1457\nvalue = [1309, 148]", fillcolor="#e58139e2"] ;
779 -> 783 ;
784 [label="gini = 0.202\nsamples = 1201\nvalue = [1064, 137]", fillcolor="#e58139de"] ;
783 -> 784 ;
785 [label="gini = 0.082\nsamples = 256\nvalue = [245, 11]", fillcolor="#e58139f4"] ;
783 -> 785 ;
786 [label="WEEKDAY_APPR_PROCESS_START_THURSDAY <= 0.5\ngini = 0.304\nsamples = 171\nvalue = [139, 32]", fillcolor="#e58139c4"] ;
772 -> 786 ;
787 [label="FLAG_DOCUMENT_11_N <= 0.5\ngini = 0.265\nsamples = 146\nvalue = [123, 23]", fillcolor="#e58139cf"] ;
786 -> 787 ;
788 [label="gini = 0.0\nsamples = 1\nvalue = [0, 1]", fillcolor="#399de5ff"] ;
787 -> 788 ;
789 [label="OCCUPATION_TYPE_Laborers <= 0.5\ngini = 0.257\nsamples = 145\nvalue = [123, 22]", fillcolor="#e58139d1"] ;
787 -> 789 ;
790 [label="gini = 0.312\nsamples = 88\nvalue = [71, 17]", fillcolor="#e58139c2"] ;
789 -> 790 ;
791 [label="gini = 0.16\nsamples = 57\nvalue = [52, 5]", fillcolor="#e58139e6"] ;
789 -> 791 ;
792 [label="REG_CITY_NOT_LIVE_CITY_Y <= 0.5\ngini = 0.461\nsamples = 25\nvalue = [16, 9]", fillcolor="#e5813970"] ;
786 -> 792 ;
793 [label="ORGANIZATION_TYPE_Self-employed <= 0.5\ngini = 0.36\nsamples = 17\nvalue = [13, 4]", fillcolor="#e58139b1"] ;
792 -> 793 ;
794 [label="gini = 0.153\nsamples = 12\nvalue = [11, 1]", fillcolor="#e58139e8"] ;
793 -> 794 ;
795 [label="gini = 0.48\nsamples = 5\nvalue = [2, 3]", fillcolor="#399de555"] ;
793 -> 795 ;
796 [label="NAME_EDUCATION_TYPE_Secondary / secondary special <= 0.5\ngini = 0.469\nsamples = 8\nvalue = [3, 5]", fillcolor="#399de566"] ;
792 -> 796 ;
797 [label="gini = 0.0\nsamples = 1\nvalue = [1, 0]", fillcolor="#e58139ff"] ;
796 -> 797 ;
798 [label="gini = 0.408\nsamples = 7\nvalue = [2, 5]", fillcolor="#399de599"] ;
796 -> 798 ;
799 [label="NAME_FAMILY_STATUS_Married <= 0.5\ngini = 0.183\nsamples = 28218\nvalue = [25345, 2873]", fillcolor="#e58139e2"] ;
697 -> 799 ;
800 [label="NAME_CONTRACT_TYPE_Revolving loans <= 0.5\ngini = 0.23\nsamples = 7064\nvalue = [6126, 938]", fillcolor="#e58139d8"] ;
799 -> 800 ;
801 [label="FLAG_OWN_REALTY_N <= 0.5\ngini = 0.24\nsamples = 6400\nvalue = [5509, 891]", fillcolor="#e58139d6"] ;
800 -> 801 ;
802 [label="ORGANIZATION_TYPE_Cleaning <= 0.5\ngini = 0.255\nsamples = 4025\nvalue = [3420, 605]", fillcolor="#e58139d2"] ;
801 -> 802 ;
803 [label="REG_CITY_NOT_LIVE_CITY_N <= 0.5\ngini = 0.255\nsamples = 4022\nvalue = [3420, 602]", fillcolor="#e58139d2"] ;
802 -> 803 ;
804 [label="ORGANIZATION_TYPE_Other <= 0.5\ngini = 0.315\nsamples = 439\nvalue = [353, 86]", fillcolor="#e58139c1"] ;
803 -> 804 ;
805 [label="gini = 0.304\nsamples = 417\nvalue = [339, 78]", fillcolor="#e58139c4"] ;
804 -> 805 ;
806 [label="gini = 0.463\nsamples = 22\nvalue = [14, 8]", fillcolor="#e581396d"] ;
804 -> 806 ;
807 [label="ORGANIZATION_TYPE_Legal Services <= 0.5\ngini = 0.247\nsamples = 3583\nvalue = [3067, 516]", fillcolor="#e58139d4"] ;
803 -> 807 ;
808 [label="gini = 0.246\nsamples = 3582\nvalue = [3067, 515]", fillcolor="#e58139d4"] ;
807 -> 808 ;
809 [label="gini = 0.0\nsamples = 1\nvalue = [0, 1]", fillcolor="#399de5ff"] ;
807 -> 809 ;
810 [label="gini = 0.0\nsamples = 3\nvalue = [0, 3]", fillcolor="#399de5ff"] ;
802 -> 810 ;
811 [label="NAME_HOUSING_TYPE_House / apartment <= 0.5\ngini = 0.212\nsamples = 2375\nvalue = [2089, 286]", fillcolor="#e58139dc"] ;
801 -> 811 ;
812 [label="LIVE_CITY_NOT_WORK_CITY_N <= 0.5\ngini = 0.248\nsamples = 718\nvalue = [614, 104]", fillcolor="#e58139d4"] ;
811 -> 812 ;
813 [label="ORGANIZATION_TYPE_Trade: type 3 <= 0.5\ngini = 0.17\nsamples = 224\nvalue = [203, 21]", fillcolor="#e58139e5"] ;
812 -> 813 ;
814 [label="gini = 0.157\nsamples = 221\nvalue = [202, 19]", fillcolor="#e58139e7"] ;
813 -> 814 ;
815 [label="gini = 0.444\nsamples = 3\nvalue = [1, 2]", fillcolor="#399de57f"] ;
813 -> 815 ;
816 [label="ORGANIZATION_TYPE_Hotel <= 0.5\ngini = 0.28\nsamples = 494\nvalue = [411, 83]", fillcolor="#e58139cc"] ;
812 -> 816 ;
817 [label="gini = 0.277\nsamples = 493\nvalue = [411, 82]", fillcolor="#e58139cc"] ;
816 -> 817 ;
818 [label="gini = 0.0\nsamples = 1\nvalue = [0, 1]", fillcolor="#399de5ff"] ;
816 -> 818 ;
819 [label="FLAG_DOCUMENT_9_Y <= 0.5\ngini = 0.196\nsamples = 1657\nvalue = [1475, 182]", fillcolor="#e58139e0"] ;
811 -> 819 ;
820 [label="ORGANIZATION_TYPE_Advertising <= 0.5\ngini = 0.195\nsamples = 1656\nvalue = [1475, 181]", fillcolor="#e58139e0"] ;
819 -> 820 ;
821 [label="gini = 0.194\nsamples = 1655\nvalue = [1475, 180]", fillcolor="#e58139e0"] ;
820 -> 821 ;
822 [label="gini = 0.0\nsamples = 1\nvalue = [0, 1]", fillcolor="#399de5ff"] ;
820 -> 822 ;
823 [label="gini = 0.0\nsamples = 1\nvalue = [0, 1]", fillcolor="#399de5ff"] ;
819 -> 823 ;
824 [label="OCCUPATION_TYPE_Private service staff <= 0.5\ngini = 0.132\nsamples = 664\nvalue = [617, 47]", fillcolor="#e58139ec"] ;
800 -> 824 ;
825 [label="FLAG_DOCUMENT_13_N <= 0.5\ngini = 0.129\nsamples = 663\nvalue = [617, 46]", fillcolor="#e58139ec"] ;
824 -> 825 ;
826 [label="gini = 0.0\nsamples = 1\nvalue = [0, 1]", fillcolor="#399de5ff"] ;
825 -> 826 ;
827 [label="ORGANIZATION_TYPE_Telecom <= 0.5\ngini = 0.127\nsamples = 662\nvalue = [617, 45]", fillcolor="#e58139ec"] ;
825 -> 827 ;
828 [label="ORGANIZATION_TYPE_Services <= 0.5\ngini = 0.124\nsamples = 661\nvalue = [617, 44]", fillcolor="#e58139ed"] ;
827 -> 828 ;
829 [label="gini = 0.122\nsamples = 660\nvalue = [617, 43]", fillcolor="#e58139ed"] ;
828 -> 829 ;
830 [label="gini = 0.0\nsamples = 1\nvalue = [0, 1]", fillcolor="#399de5ff"] ;
828 -> 830 ;
831 [label="gini = 0.0\nsamples = 1\nvalue = [0, 1]", fillcolor="#399de5ff"] ;
827 -> 831 ;
832 [label="gini = 0.0\nsamples = 1\nvalue = [0, 1]", fillcolor="#399de5ff"] ;
824 -> 832 ;
833 [label="FLAG_DOCUMENT_3_N <= 0.5\ngini = 0.166\nsamples = 21154\nvalue = [19219, 1935]", fillcolor="#e58139e5"] ;
799 -> 833 ;
834 [label="NAME_HOUSING_TYPE_With parents <= 0.5\ngini = 0.18\nsamples = 14742\nvalue = [13265, 1477]", fillcolor="#e58139e3"] ;
833 -> 834 ;
835 [label="FLAG_DOCUMENT_21_N <= 0.5\ngini = 0.176\nsamples = 14086\nvalue = [12712, 1374]", fillcolor="#e58139e3"] ;
834 -> 835 ;
836 [label="gini = 0.0\nsamples = 2\nvalue = [0, 2]", fillcolor="#399de5ff"] ;
835 -> 836 ;
837 [label="REG_CITY_NOT_LIVE_CITY_N <= 0.5\ngini = 0.176\nsamples = 14084\nvalue = [12712, 1372]", fillcolor="#e58139e3"] ;
835 -> 837 ;
838 [label="ORGANIZATION_TYPE_Transport: type 3 <= 0.5\ngini = 0.228\nsamples = 1067\nvalue = [927, 140]", fillcolor="#e58139d8"] ;
837 -> 838 ;
839 [label="gini = 0.219\nsamples = 1052\nvalue = [920, 132]", fillcolor="#e58139da"] ;
838 -> 839 ;
840 [label="gini = 0.498\nsamples = 15\nvalue = [7, 8]", fillcolor="#399de520"] ;
838 -> 840 ;
841 [label="ORGANIZATION_TYPE_Industry: type 9 <= 0.5\ngini = 0.171\nsamples = 13017\nvalue = [11785, 1232]", fillcolor="#e58139e4"] ;
837 -> 841 ;
842 [label="gini = 0.174\nsamples = 12582\nvalue = [11370, 1212]", fillcolor="#e58139e4"] ;
841 -> 842 ;
843 [label="gini = 0.088\nsamples = 435\nvalue = [415, 20]", fillcolor="#e58139f3"] ;
841 -> 843 ;
844 [label="REG_REGION_NOT_LIVE_REGION_Y <= 0.5\ngini = 0.265\nsamples = 656\nvalue = [553, 103]", fillcolor="#e58139d0"] ;
834 -> 844 ;
845 [label="NAME_CONTRACT_TYPE_Cash loans <= 0.5\ngini = 0.257\nsamples = 646\nvalue = [548, 98]", fillcolor="#e58139d1"] ;
844 -> 845 ;
846 [label="gini = 0.0\nsamples = 1\nvalue = [0, 1]", fillcolor="#399de5ff"] ;
845 -> 846 ;
847 [label="OCCUPATION_TYPE_Realty agents <= 0.5\ngini = 0.256\nsamples = 645\nvalue = [548, 97]", fillcolor="#e58139d2"] ;
845 -> 847 ;
848 [label="gini = 0.254\nsamples = 644\nvalue = [548, 96]", fillcolor="#e58139d2"] ;
847 -> 848 ;
849 [label="gini = 0.0\nsamples = 1\nvalue = [0, 1]", fillcolor="#399de5ff"] ;
847 -> 849 ;
850 [label="LIVE_CITY_NOT_WORK_CITY_N <= 0.5\ngini = 0.5\nsamples = 10\nvalue = [5, 5]", fillcolor="#e5813900"] ;
844 -> 850 ;
851 [label="gini = 0.0\nsamples = 2\nvalue = [2, 0]", fillcolor="#e58139ff"] ;
850 -> 851 ;
852 [label="LIVE_REGION_NOT_WORK_REGION_Y <= 0.5\ngini = 0.469\nsamples = 8\nvalue = [3, 5]", fillcolor="#399de566"] ;
850 -> 852 ;
853 [label="gini = 0.408\nsamples = 7\nvalue = [2, 5]", fillcolor="#399de599"] ;
852 -> 853 ;
854 [label="gini = 0.0\nsamples = 1\nvalue = [1, 0]", fillcolor="#e58139ff"] ;
852 -> 854 ;
855 [label="NAME_CONTRACT_TYPE_Cash loans <= 0.5\ngini = 0.133\nsamples = 6412\nvalue = [5954, 458]", fillcolor="#e58139eb"] ;
833 -> 855 ;
856 [label="NAME_TYPE_SUITE_Other_B <= 0.5\ngini = 0.092\nsamples = 1572\nvalue = [1496, 76]", fillcolor="#e58139f2"] ;
855 -> 856 ;
857 [label="ORGANIZATION_TYPE_Self-employed <= 0.5\ngini = 0.09\nsamples = 1564\nvalue = [1490, 74]", fillcolor="#e58139f2"] ;
856 -> 857 ;
858 [label="ORGANIZATION_TYPE_Security Ministries <= 0.5\ngini = 0.079\nsamples = 1304\nvalue = [1250, 54]", fillcolor="#e58139f4"] ;
857 -> 858 ;
859 [label="gini = 0.078\nsamples = 1301\nvalue = [1248, 53]", fillcolor="#e58139f4"] ;
858 -> 859 ;
860 [label="gini = 0.444\nsamples = 3\nvalue = [2, 1]", fillcolor="#e581397f"] ;
858 -> 860 ;
861 [label="FLAG_DOCUMENT_9_Y <= 0.5\ngini = 0.142\nsamples = 260\nvalue = [240, 20]", fillcolor="#e58139ea"] ;
857 -> 861 ;
862 [label="gini = 0.136\nsamples = 259\nvalue = [240, 19]", fillcolor="#e58139eb"] ;
861 -> 862 ;
863 [label="gini = 0.0\nsamples = 1\nvalue = [0, 1]", fillcolor="#399de5ff"] ;
861 -> 863 ;
864 [label="WEEKDAY_APPR_PROCESS_START_SATURDAY <= 0.5\ngini = 0.375\nsamples = 8\nvalue = [6, 2]", fillcolor="#e58139aa"] ;
856 -> 864 ;
865 [label="FLAG_WORK_PHONE_N <= 0.5\ngini = 0.245\nsamples = 7\nvalue = [6, 1]", fillcolor="#e58139d4"] ;
864 -> 865 ;
